tree
version=v4
num_class=1
num_tree_per_iteration=1
label_index=0
max_feature_idx=11
objective=huber
feature_names=log10_distance_to_serving_gw_km bearing_sin bearing_cos distance_to_2nd_nearest_gw_km elevation_diff_m los_obstruction_count urbanization_index spreading_factor frequency_mhz gw_antenna_height_m gw_antenna_gain_dbi serving_gateway_id
feature_infos=[-2.0923488124060308:1.4294309024270706] [-0.99998258558744624:0.99999875599331245] [-0.99992385804176198:0.99999845410173294] [0.022964492670829739:21.95642641183932] [-591.0362548828125:70.281847476959229] [0:55] [0:1] -1:1:0 [921.39999999999998:922.79999999999995] none none -1:2:1:3:0:7:5:10:9:6:8
tree_sizes=663 751 750 749 750 753 754 754 840 836 837 841 754 834 819 822 905 903 989 990 905 851 856 854 944 944 940 940 940 937 942 1028 1030 900 905 903 911 990 999 965 999 995 972 966 954 1051 1036 1087 1054 1132 1182 1171 1273 1092 1092 1092 1177 1280 1168 1338 1352 1331 1240 1428 1412 1448 1333 1262 1444 1435 1337 1275 1530 1534 1443 1449 1533 1512 1451 1613 1708 1512 1168 1249 1252 1252 1149 1160 1168 1171 1255 1349 1343 1340 1414 1339 1326 1406 1434 1229 1152 1150 1255 1149 1090 1141 1175 1156 1102 1121 943 942 942 939 1028 1042 1013 1031 948 1014 1027 948 1013 1029 944 990 992 926 989 1033 940 1014 940 1028 1013 995 1022 960 948 950 996 952 1191 1079 1259 1158 1126 1156 1126 1075 1340 1342 1343 1191 1191 923 1194 1295 1121 1157 979 1098 1172 998 1033 975 1209 921 1181 1017 955 1007 930 1099 1098 1100 1034 1037 1103 1111 1104 1079 1089 1103 1094 1147 1138 1167 1089 1142 1142 1103 1210 1207 1361 1303 1227 1107 1134 1155 1080 1274 1169 1164 1100 1177 1252 1099 998 1239 1007 1296 1035 942 1037 1258 1200 1285 1038 1032 1197 1109 1109 1023 1041 1108 1131 1227 1114 1106 1153 1154 1200 1093 1088 1172 1177 985 1175 996 1199 1176 1091 979 976 1242 1194 1127 1248 1234 1247 1289 1228 1302 1192 1242 1271 1196 1090 1110 1176 1217 765 770 1107 776 770 1365 776 770 750 1194 1308 1180 769 771 838 1290 1201 773 775 837 740 898 777 779 740 1179 1012 898 1199 1199 867 1265 808 1211 811 1249 1094 1074 971 1494 966 1117 1531 954 961 1267 906 1216 1553 1270 958 948 1700 923 1424 960 1631 966 1506 1579 896 1582 893 747 1353 1543 761 1287 1561 1620 752 947 1542 928 1445 1172 898 772 937 1332 761 892 1026 756 1342 1035 1162 913 912 863 811 913 864 1582 917 1495 1249 1323 919 1638 935 1606 1594 1270 916 1734 1646 1414 1276 961 910 1409 1010 1481 923 1599 1579 1382 827 1527 1611 806 919 1418 1237 1345 1086 748 1075 1657 899 1255 809 712 976 1608 898 1635 1364 1295 1356 1046 1356 1098 1074 997 1078 1054 1018 1150 1197 1074 1459 1160 700 1460 983 746 1036 1552 1310 989 1096 1425 704 1440 915 953 951 746 1504 911 894 753 957 1434 937 1506 1059 1154 1041 1620 1798 1090 1652 919 1592 1231 1338 889 1335 1662 880 1726 921 1581 1218 1341 1178 993 1460 1445 1481 1401 1242 1281 1046 1464 1024 1168 1046 1352 1295 1166 1036 1170 966 1098 1192 1646 1427 1062 995 1449 1716 1432 1226 995 896 1012 895 967 1212 929 1226 980 1123 1261 1100 1390 1341 1008 951 953 1221 980 1296 1524 1020 1661 906 1045 1190 1080 1421 995 1328 1547 1084 1529 1370 900 879 916 1001 1400 1037 1879 859 857 1116 925 1229 1158 1335 1246 1196 1184 793 1309 1248 1731 956 911 1000 899 976 959 1376 1075 1346 1069 928 1472 856 1194 1260 983 950 1439 870 1451 1291 1373 880 1239 1184 954 1286 1244 1081 808 1166 1490 964 875 1036 1296 935 1467 954 881 1394 945 861 903 970 1335 899 873 1215 866 1111 1046 852 1170 1399 1482 1112 1494 1710 958 1466 1641 1095 926 1024 1741 1366 1207 1038 1145 1144 850 1522 1146 1737 956 1324 1412 982 862 1519 1301 1555 877 1562 1519 1405 1516 1356 1305 1538 1211 1599 1062 886 1211 1741 1539 1362 1188 1685 1169 1195 1718 1119 1546 1411 1742 1554 1506 1779 1357 1304 1354 1254 1138 1116 1178 1218 990 1041 1280 1301 1376 1118 873 1302 1145 1085 1145 1135 881 1147 1133 1132 919 1117 912 1149 938 879 1071 1028 1301 934 938 1103 1415 1430 1660 1286 1088 1344 1023 1435 798 1354 861 1104 1418 1694 1217 1268 1295 1056 1305 1048 1388 1046 1753 1005 1172 1141 1379 1206 1182 1313 885 895 1117 851 877 1121 853 855 1030 1375 1161 1046 1121 892 1017 1419 1299 1434 1020 1105 892 850 877 1144 1509 1229 1414 1337 1587 1458 1361 1758 1329 940 1104 1333 1147 993 1104 1224 1279 1068 1112 1410 868 1449 1149 957 1294 1257 1076 1413 1184 878 1274 1480 1275 1181 1374 1228 1115 1286 1368 1376 1213 1213 1033 1537 1310 1928 1450 1007 1057 1149 935 1310 987 1188 1072 1106 1233 1215 1383 1148 1308 1381 1482 1143 1511 1123 1765 1022 1875 1948 1875 1359 1730 1638 1020 1462 967 1612 1227 1019 1631 1131 1710 1597 1438 1148 1077 1570 2008 1078 1193 1283 1227 1287 1822 979 1888 1407 1677 1883 1655 1827 994 1173 1753 1523 1610 1467 1450 1579 1172 1260 878 1899 870 1511 1413 1428 1316 1584 1657 1485 1362 1297 1413 1202 1507 1290 1207 1461 1142 1326 1294 1195 1247 1360 1247 896 739 1309 1301 734 1564 1508 1303 739 1522 1210 1043 1745 1182 1305 1506 1230 1313 1238 1488 1449 1246 1623 1601 1458 1491 1057 1326 1034 1065 732 1153 1539 1347 1212 1196 1468 1477 1599 1389 1334 1364 1746 1449 1317 999 1351 1373 1287 1508 1679 1222 1208 1529 1182 1667 1291 1187 1343 1366 1212 1628 954 931 1453 1288 1866 1441 1429 1428 1114 1434 1018 1016 1364 1232 1608 1289 1453 1105 1337 1063 1464 1062 1236 1562 1539 1628 1257 1347 1195 1916 1693 1031 1177 1471 1073 1091 1161 1207 1545 1454 1688 1657 1945 1308 763 874 1217 1506 1017 1018 989 1066 1710 1207 1393 1523 1737 1316 1429 1120 1673 1141 873 1358 1387 1239 1489 1214 1817 1412 1345 1225 1713 1197 1621 1238 1486 1129 1297 1411 1263 1012 1193 1801 1506 1504 1097 1205 1009 1014 1156 1210 911 1162 1322 985 1246 1464 982 1324 1245 1204 1266 1238 1209 1279 1027 1542 1621 1428 1219 1402 1364 1187 1352 1007 1353 953 983 959 962 1194 955 1296 960 999 1132 1100 1068 1461 1585 1173 1563 995 1117 1435 1025 1529 1372 1198 876 1198 1667 1008 1278 1014 1015 1023 1079 1471 1479 1024 1505 1375 1296 984 1213 1269 1178 1323 1182 1655 1082 1279 1401 847 1553 847 1042 860 1057 1699 861 1132 1000 1158 1761 1524 1346 1407 1365 1298 1328 1529 1237 1279 794 1370 1120 1198 1131 1115 1305 1144 1386 957 1146 1334 1320 1264 1467 1364 976 972 883 1268 1201 1352 1267 1264 1657 1414 1337 1312 1353 1508 1262 1575 1627 1666 1135 1166 1347 1338 1676 974 835 1144 1139 1271 1180 1430 1185 1023 1656 1278 1644 976 1471 1901 1180 1155 971 885 993 995 1020 1504 1292 1168 1238 1105 1267 1247 1198 1303 1243 1352 1346 1489 1449 1142 1767 1405 1669 1103 1440 1441 1472 1334 1376 1434 1124 1191 1258 1506 1173 1445 1460 1662 1519 1356 1303 1068 1379 1190 1568 1026 1216 1264 1194 1657 1562 1159 1308 1321 1357 1730 1233 1347 875 1616 1098 1473 1101 1210 1616 1736 1679 1373 1593 1607 1388 1298 1313 1654 1235 1469 1147 1630 1406 1699 1048 1178 1506 1364 1630 1624 1464 1601 1300 1553 1493 1600 1033 1208 1736 1052 1127 1330 1522 1214 1026 1779 1393 1047 1419 1123 961 1096 1022 1469 1424 1383 1048 1315 1415 1509 1535 1651 1003 1356 1274 737 1205 1304 1360 1735 1213 1126 1343 1274 1115 1689 1359 1419 741 1368 1530 1120 1184 1650 1285 1425 1649 1206 678 1289 1266 1790 1770 1820 1801 901 1730 901 810 1127 986 877 1116 1501 1812 1141 1342 1259 1645 1349 996 1714 810 1081 1887 1137 1170 1734 809 1142 1489 1315 1476 916 1417 681 1089 1278 682 680 1097 1752 1223 1349 1186 1341 1113 1381 1106 1114 679 1277 1385 875 1654 1367 877 680 680 1212 1740 897 1157 1910 914 780 779 1735 1338 1045 1102 1644 1015 1696 1513 1512 1533 1526 1188 1180 1299 1280 1249 994 1181 1207 1385 1492 1312 1287 1635 1494 1325 1411 981 1339 1373 1568 1655 1471 1247 1295 1420 1427 1116 1539 1292 1282 1423 1354 1305 1502 1303 1529 1441 1034 1477 1371 1302 1418 1207 1413 1429 1142 1146 1689 1341 1613 1425 1156 1642 1738 1588 1632 1547 1675 1617 1549 1574 1562 1659 1106 1683 1620 1684 1634 1745 788 1484 1518 739 1056 1649 2034 1433 1364 1425 1372 1435 1363 1334 1365 1339 1314 1395 1076 1270 1074 1193 738 738 802 1502 1199 751 754 1078 1360 1471 1347 1143 1326 1301 1503 1455 889 1219 1211 872 895 1662 1193 1382 1217 1162 1402 1390 1761 1352 941 1225 1210 1328 1411 1343 1606 1500 1570 1421 1361 1456 1412 1341 1397 1113 1637 1042 1462 1855 1234 1334 1366 1532 1593 1664 1420 1513 997 1015 1267 1369 1482 993 1394 1500 1792 1442 1453 1325 1404 1348 1392 1597 1267 1227 1199 1094 1667 1741 1493 1204 1520 1658 1339 1036 1291 1028 765 1625 1025 1433 1609 1366 811 1666 1606 1242 1389 1542 1532 1294 1661 902 897 1394 893 1568 1504 1657 1320 1204 1675 1273 1711 1533 1736 1521 1227 1810 1322 1463 1325 1624 703 1629 767 1511 769 1325 1750 1509 760 1002 1746 1356 842 1028 1283 871 1063 757 1276 1037 1209 1293 1434 1576 1488 1606 1363 1362 1440 1705 1210 1586 1536 1203 984 1348 1184 1395 1281 1367 1501 1197 1317 1368 1450 1452 1323 1326 1721 1518 1231 1522 1044 1719 1074 977 981 1434 1334 1486 1446 866 797 768 896 1533 1480 797 799 1501 706 828 988 1419 1212 1090 1387 1063 1029 1500 1506 1229 1747 1015 860 784 1058 1507 1327 1462 1372 1561 1139 1670 1321 1219 1907 1870 1312 1604 1778 1497 1404 1361 1121 1301 1226 1606 1196 1179 1426 1318 1392 1312 1105 1374 1202 1445 1092 1388 1208 1229 1191 1252 1112 946 1573 1088 1602 1042 936 941 1165 944 950 948 1360 952 1417 1256 1221 932 944 1298 1673 1667 1669 1559 1592 1447 1118 1157 1294 1266 1408 1518 1356 1244 1188 1567 1560 1232 1232 1209 1482 1684 1746 1326 1325 1480 1886 1417 880 1514 1260 1672 1130 1720 1423 1835 1281 1476 1273 1203 1627 1366 1554 1105 1198 1367 1200 1192 1344 1397 1139 1480 1342 1430 1353 1444 1328 1337 1364 1203 1294 1275 1045 1117 1329 1192 1522 1446 1427 1741 1377 1383 1071 1446 1230 1289 1292 1304 1287 1891 1284 1541 1578 1437 1614 1309 1554 780 1277 1648 1457 1550 1415 1416 1476 1142 1239 1148 1591 1496 1413 1416 1333 1198 1459 1413 1415 1308 1285 1570 1272 1611 1531 1363 1646 1292 1582 1362 1282 1467 1737 1559 1331 1164 1341 1254 1029 1793 1600 1656 1627 1246 1627 1347 1344 1530 1177 914 1304 917 1292 1048 1254 1262 1600 1295 1410 1784 1658 1794 1607 1207 1229 1419 1511 1498 1431 1586 1314 1400 1184 1765 1188 1722 1467 1187 1167 1415 1444 1379 1237 1565 1769 1200 1306 1411 1482 1440 1199 1453 1330 1280 1164 1377 1424 1419 1155 1756 1050 1257 1310 1198 1329 1477 1197 1546 1625 1429 1716 1075 1336 1520 1184 1283 1337 1475 1532 1150 1409 1238 1352 1419 1105 1411 1459 1185 1385 1354 1684 1325 1414 1567 1651 1485 1671 1564 1521 1571 1600 1788 1314 1096 1431 1245 1001 1581 1486 1317 1593 1704 1364 1368 1837 1263 1255 1300 1373 1767 1694 1245 1288 1620 1282 1340 1251 1103 1233 1304 1560 1056 1051 1548 1173 1185 1516 1237 1526 1150 1398 1377 1172 1354 1206 1560 1174 1415 971 1581 1234 1043 903 1414 1573 1502 1305 1779 1269 1489 1353 1558 1493 1615 1439 1206 1379 1266 1669 1198 1651 1478 1512 1556 1932 1464 1413 1451 1131 1381 1516 1127 1200 1300 1481 1289 1444 1524 1395 1253 1367 1530 1177 1379 1235 1287 1560 1235 1480 1243 1531 1204 1278 1432 1863 1559 1385 1478 1760 1263 1245 1364 1279 1165 1523 1291 1315 1283 1481 1134 1613 1246 1528 1397 1236 1435 1201 1426 1291 1328 1197 1591 1415 1259 942 1038 965 1418 1703 1293 1206 1899 1639 1432 1346 1410 1446 1724 1559 1324 1453 1473 1162 1126 1165 1323 1744 1263 1593 1208 1557 1441 1114 1456 1237 1308 1687 1209 1677 1839 1318 1280 1418 1626 1452 1107 1422 1429 1567 1110 903 1016 1258 1493 1265 1245 1266 1269 1240 1503 1308 1611 1273 1242 1499 1347 1092 1084 1202 1387 1760 845 1301 838 1093 1108 1494 1346 1342 1052 1736 1197 1766 1496 1328 1005 1507 1557 1199 1468 1442 1341 1473 1021 1793 1333 1229 1403 1222 1573 1337 1256 1124 1330 1263 1053 1579 1483 1712 1263 1257 1441 1278 1210 1716 1744 1260 1210 1444 1357 1396 1572 1435 1481 1294 1479 1192 1329 1651 1570 1354 1215 1501 1476 1300 1332 866 1335 1443 1369 1165 1222 876 1617 1097 1015 1009 1719 1451 1187 1196 878 1424 1194 1207 1030 1029 1677 1494 1051 1916 1593 1165 1382 1490 1419 1343 1211 1319 1069 1511 1613 1705 1058 1220 1729 1109 1045 1404 1199 1565 1370 1216 1358 1678 1630 1106 1510 1099 1634 1784 1509 1423 1475 1463 1358 1370 1099 1633 871 1234 1602 1107 1629 1522 1267 1694 1551 1318 1048 1266 1397 1706 1120 1384 1775 1171 1174 1448 1425 1330 1152 1454 1262 1335 1355 1331 975 1019 1563 1020 1746 1344 1346 1563 1654 1336 1498 1337 1399 1624 1119 1349 1234 1611 1218 1630 1258 1363 1394 1396 1523 1163 1318 1585 1575 1349 1729 1334 1252 1251 1298 1420 1319 1616 1699 1053 1484 1142 1270 1579 1425 1650 1486 1400 1681 1009 843 1405 1491 1485 1027 1500 1045 1147 1607 1621 1596 1651 1872 1566 1828 1592 1528 1304 1434 868 1035 1499 1332 1454 1326 1753 1399 1506 1327 1625 1046 1561 1583 1169 1634 1409 1195 1020 1416 1012 1025 891 1115 872 1036 845 1794 1259 1168 1600 1702 1420 842 1141 1267 1331 1305 1314 1782 1342 1394 1062 1162 1251 1215 1047 1036 871 1117 873 1044 1039 1048

Tree=0
num_leaves=6
num_cat=0
split_feature=0 3 5 4 0
split_gain=1641.67 146.988 39.0401 3.79101 3.68661
threshold=0.51968406416386415 1.1525920274784667 1.5000000000000002 -6.2071301937103263 0.13804865619000689
decision_type=2 2 2 2 2
left_child=1 4 -3 -2 -1
right_child=3 2 -4 -5 -6
leaf_value=-0.75313106762831494 -0.46056774335282802 -0.6545145494452651 -0.51959525754542768 -0.42709047342491746 -0.68514002686393338
leaf_weight=936 731 176 122 970 114
leaf_count=936 731 176 122 970 114
internal_value=-0.561996 -0.714271 -0.595887 -0.440741 -0.746865
internal_weight=3049 1348 298 1701 1050
internal_count=3049 1348 298 1701 1050
is_linear=0
shrinkage=1


Tree=1
num_leaves=7
num_cat=0
split_feature=0 3 5 4 0 0
split_gain=1622.07 144.757 37.8009 6.19713 5.36138 1.7786
threshold=0.51968406416386415 1.1525920274784667 1.5000000000000002 -569.63279628753651 0.13804865619000689 1.0996289697555015
decision_type=2 2 2 2 2 2
left_child=1 4 -3 5 -1 -2
right_child=3 2 -4 -5 -6 -7
leaf_value=-0.16158547610388072 0.068445901017079314 -0.062731799022589546 0.069963467793759684 0.16294312717019427 -0.08971958602566725 0.13340902665403315
leaf_weight=936 91 176 122 1038 114 572
leaf_count=936 91 176 122 1038 114 572
internal_value=0.0288178 -0.122543 -0.00501965 0.14935 -0.154892 0.126191
internal_weight=3049 1348 298 1701 1050 663
internal_count=3049 1348 298 1701 1050 663
is_linear=0
shrinkage=0.185339


Tree=2
num_leaves=7
num_cat=0
split_feature=0 3 5 4 0 0
split_gain=1601.6 142.62 36.5529 9.03567 7.02333 1.82198
threshold=0.51968406416386415 1.1525920274784667 1.5000000000000002 -569.63279628753651 0.13804865619000689 1.0996289697555015
decision_type=2 2 2 2 2 2
left_child=1 4 -3 5 -1 -2
right_child=3 2 -4 -5 -6 -7
leaf_value=-0.16136194462983555 0.065794107478147276 -0.062235345363211327 0.068183456473170229 0.16279791378581385 -0.085843836210780289 0.1301553321505462
leaf_weight=936 91 176 122 1038 114 572
leaf_count=936 91 176 122 1038 114 572
internal_value=0.0282482 -0.122153 -0.00546038 0.14802 -0.154266 0.123012
internal_weight=3049 1348 298 1701 1050 663
internal_count=3049 1348 298 1701 1050 663
is_linear=0
shrinkage=0.185339


Tree=3
num_leaves=7
num_cat=0
split_feature=0 3 5 4 0 0
split_gain=1581 140.605 35.3832 12.0733 8.73668 1.83176
threshold=0.51968406416386415 1.1525920274784667 1.5000000000000002 -569.63279628753651 0.13804865619000689 1.0996289697555015
decision_type=2 2 2 2 2 2
left_child=1 4 -3 5 -1 -2
right_child=3 2 -4 -5 -6 -7
leaf_value=-0.1611150076062178 0.063254387743496648 -0.061716470719953419 0.066536359460766956 0.16265128795928896 -0.082007517391634643 0.12690207352244071
leaf_weight=936 91 176 122 1038 114 572
leaf_count=936 91 176 122 1038 114 572
internal_value=0.0276939 -0.121735 -0.00583292 0.146696 -0.153623 0.11985
internal_weight=3049 1348 298 1701 1050 663
internal_count=3049 1348 298 1701 1050 663
is_linear=0
shrinkage=0.185339


Tree=4
num_leaves=7
num_cat=0
split_feature=0 3 5 4 0 0
split_gain=1559.63 138.821 34.2332 15.5676 10.3634 1.72999
threshold=0.51968406416386415 1.1525920274784667 1.5000000000000002 -569.63279628753651 0.13804865619000689 1.0996289697555015
decision_type=2 2 2 2 2 2
left_child=1 4 -3 5 -1 -2
right_child=3 2 -4 -5 -6 -7
leaf_value=-0.16089212695142677 0.060855160721991715 -0.061148565631758703 0.064943117800711561 0.16247734401582975 -0.078517252812498009 0.1233444282767891
leaf_weight=936 91 176 122 1038 114 572
leaf_count=936 91 176 122 1038 114 572
internal_value=0.027062 -0.121352 -0.00615413 0.14526 -0.15304 0.116444
internal_weight=3049 1348 298 1701 1050 663
internal_count=3049 1348 298 1701 1050 663
is_linear=0
shrinkage=0.185339


Tree=5
num_leaves=7
num_cat=0
split_feature=0 3 5 4 0 0
split_gain=1537.52 137.158 33.119 19.6141 11.9535 1.53646
threshold=0.51968406416386415 1.1525920274784667 1.5000000000000002 -569.63279628753651 0.13804865619000689 1.0996289697555015
decision_type=2 2 2 2 2 2
left_child=1 4 -3 5 -1 -2
right_child=3 2 -4 -5 -6 -7
leaf_value=-0.16068460789147562 0.058546936164986019 -0.060575024992159963 0.063388026875579637 0.16230291248071566 -0.075233086010477082 0.11947503245078446
leaf_weight=936 91 176 122 1038 114 572
leaf_count=936 91 176 122 1038 114 572
internal_value=0.0263633 -0.120993 -0.00645624 0.143723 -0.152493 0.112782
internal_weight=3049 1348 298 1701 1050 663
internal_count=3049 1348 298 1701 1050 663
is_linear=0
shrinkage=0.185339


Tree=6
num_leaves=7
num_cat=0
split_feature=0 3 5 4 0 0
split_gain=1514.7 135.586 32.3156 24.0006 13.7398 1.41147
threshold=0.51968406416386415 1.1525920274784667 1.5000000000000002 -569.63279628753651 0.13804865619000689 1.1066512057196383
decision_type=2 2 2 2 2 2
left_child=1 4 -3 5 -1 -2
right_child=3 2 -4 -5 -6 -7
leaf_value=-0.1604830846333303 0.059801689812729798 -0.060172323268183461 0.062230511968413851 0.16210041251574478 -0.071696126578770322 0.11622876108846426
leaf_weight=936 104 176 122 1038 114 559
leaf_count=936 104 176 122 1038 114 559
internal_value=0.0256541 -0.120603 -0.00669547 0.142143 -0.151924 0.109052
internal_weight=3049 1348 298 1701 1050 663
internal_count=3049 1348 298 1701 1050 663
is_linear=0
shrinkage=0.185339


Tree=7
num_leaves=7
num_cat=0
split_feature=0 3 5 4 0 0
split_gain=1491.5 134.356 31.7813 28.5003 15.5215 1.19467
threshold=0.51968406416386415 1.1525920274784667 1.5000000000000002 -569.63279628753651 0.13804865619000689 1.1066512057196383
decision_type=2 2 2 2 2 2
left_child=1 4 -3 5 -1 -2
right_child=3 2 -4 -5 -6 -7
leaf_value=-0.16024502531927257 0.057537194800927408 -0.05979606736053017 0.061570122162186505 0.16185665573685479 -0.068254833141327853 0.11234502923334067
leaf_weight=936 104 176 122 1038 114 559
leaf_count=936 104 176 122 1038 114 559
internal_value=0.0249775 -0.120153 -0.00674506 0.140575 -0.151333 0.105415
internal_weight=3049 1348 298 1701 1050 663
internal_count=3049 1348 298 1701 1050 663
is_linear=0
shrinkage=0.185339


Tree=8
num_leaves=8
num_cat=0
split_feature=0 3 4 5 0 0 4
split_gain=1469.51 133.118 33.0185 31.2171 17.2958 0.984621 2.92821
threshold=0.51968406416386415 1.1525920274784667 -569.63279628753651 1.5000000000000002 0.13804865619000689 1.1066512057196383 -578.43923568725575
decision_type=2 2 2 2 2 2 2
left_child=1 4 5 -3 -1 -2 -7
right_child=2 3 -4 -5 -6 6 -8
leaf_value=-0.16002334815424007 0.055421463841414866 -0.059425176097309608 0.16160415101795947 0.060832960781404224 -0.064946717590174396 0.11960323365149035 0.061114647300609087
leaf_weight=936 104 176 1038 122 114 435 124
leaf_count=936 104 176 1038 122 114 435 124
internal_value=0.0243209 -0.119734 0.139066 -0.00682954 -0.150771 0.101946 0.108632
internal_weight=3049 1348 1701 298 1050 663 559
internal_count=3049 1348 1701 298 1050 663 559
is_linear=0
shrinkage=0.185339


Tree=9
num_leaves=8
num_cat=0
split_feature=0 3 4 5 0 0 4
split_gain=1448.37 131.839 37.7758 30.6278 18.9868 0.762543 2.55215
threshold=0.51968406416386415 1.1525920274784667 -569.63279628753651 1.5000000000000002 0.13804865619000689 1.0996289697555015 -578.43923568725575
decision_type=2 2 2 2 2 2 2
left_child=1 4 5 -3 -1 -2 -7
right_child=2 3 -4 -5 -6 6 -8
leaf_value=-0.15980790638156644 0.049931381277505016 -0.05908184493338637 0.1613737188621816 0.060002383271715885 -0.061879557822550897 0.11457280786413758 0.058317252413075116
leaf_weight=936 91 176 1038 122 114 448 124
leaf_count=936 91 176 1038 122 114 448 124
internal_value=0.0236606 -0.119352 0.13758 -0.00696895 -0.150241 0.0985012 0.104323
internal_weight=3049 1348 1701 298 1050 663 572
internal_count=3049 1348 1701 298 1050 663 572
is_linear=0
shrinkage=0.185339


Tree=10
num_leaves=8
num_cat=0
split_feature=0 3 4 5 0 4 0
split_gain=1425.41 130.248 43.7035 29.827 20.5917 0.845628 1.85659
threshold=0.51968406416386415 1.1525920274784667 -569.63279628753651 1.5000000000000002 0.13804865619000689 -577.75145959854115 1.1066512057196383
decision_type=2 2 2 2 2 2 2
left_child=1 4 5 -3 -1 6 -2
right_child=2 3 -4 -5 -6 -7 -8
leaf_value=-0.15956509539505015 0.05169629730720951 -0.058712407707884579 0.1611625966235522 0.058745198411308701 -0.059008447303917973 0.04507623547109775 0.10828593158668469
leaf_weight=936 104 176 1038 122 114 86 473
leaf_count=936 104 176 1038 122 114 86 473
internal_value=0.0228696 -0.119003 0.135887 -0.00726908 -0.149708 0.0944939 0.0999878
internal_weight=3049 1348 1701 298 1050 663 577
internal_count=3049 1348 1701 298 1050 663 577
is_linear=0
shrinkage=0.185339


Tree=11
num_leaves=8
num_cat=0
split_feature=0 3 4 5 0 4 0
split_gain=1403.07 128.643 49.9851 29.0181 22.1506 0.802285 1.51932
threshold=0.51968406416386415 1.1525920274784667 -569.63279628753651 1.5000000000000002 0.13804865619000689 -577.75145959854115 1.1202324319227559
decision_type=2 2 2 2 2 2 2
left_child=1 4 5 -3 -1 6 -2
right_child=2 3 -4 -5 -6 -7 -8
leaf_value=-0.15931515219554571 0.054912919412621768 -0.058345166467593218 0.16098315837484917 0.057444313534035736 -0.056270551230846018 0.042222994544713344 0.10516264250957223
leaf_weight=936 129 176 1038 122 114 86 448
leaf_count=936 129 176 1038 122 114 86 448
internal_value=0.0220893 -0.118666 0.134221 -0.00758856 -0.149184 0.0905088 0.0958436
internal_weight=3049 1348 1701 298 1050 663 577
internal_count=3049 1348 1701 298 1050 663 577
is_linear=0
shrinkage=0.185339


Tree=12
num_leaves=7
num_cat=0
split_feature=0 3 4 5 0 0
split_gain=1381.64 127.053 56.2919 28.1959 23.6319 0.846534
threshold=0.51968406416386415 1.1525920274784667 -569.63279628753651 1.5000000000000002 0.13804865619000689 1.1884864136738515
decision_type=2 2 2 2 2 2
left_child=1 4 5 -3 -1 -2
right_child=2 3 -4 -5 -6 -7
leaf_value=-0.15900645538367175 0.077931062336806398 -0.0579195306839696 0.16083969170080906 0.056154756005747049 -0.053659689982239467 0.12992896825627928
leaf_weight=936 574 176 1038 122 114 89
leaf_count=936 574 176 1038 122 114 89
internal_value=0.0213848 -0.118289 0.132661 -0.00786872 -0.148621 0.086736
internal_weight=3049 1348 1701 298 1050 663
internal_count=3049 1348 1701 298 1050 663
is_linear=0
shrinkage=0.185339


Tree=13
num_leaves=8
num_cat=0
split_feature=0 3 4 5 0 4 0
split_gain=1359.2 125.251 62.7983 27.401 25.2404 1.29205 1.26296
threshold=0.51968406416386415 1.1525920274784667 -569.63279628753651 1.5000000000000002 0.14981744762011998 -577.75145959854115 1.138497482240717
decision_type=2 2 2 2 2 2 2
left_child=1 4 5 -3 -1 6 -2
right_child=2 3 -4 -5 -6 -7 -8
leaf_value=-0.15733644384398049 0.053944351013320145 -0.057496999978211831 0.16066854729320487 0.054894146627793523 -0.03952971814924542 0.034769001736142079 0.098574775369520737
leaf_weight=957 157 176 1038 122 93 86 420
leaf_count=957 157 176 1038 122 93 86 420
internal_value=0.0207239 -0.117809 0.131096 -0.00813877 -0.147928 0.0829962 0.088346
internal_weight=3049 1348 1701 298 1050 663 577
internal_count=3049 1348 1701 298 1050 663 577
is_linear=0
shrinkage=0.185339


Tree=14
num_leaves=8
num_cat=2
split_feature=0 11 5 7 0 3 2
split_gain=1338.95 91.6395 77.9099 49.3777 44.7592 6.08087 7.19189
threshold=0.28763659675205683 0 1.5000000000000002 1 0.83004717628485769 4.3551907659887856 0.3216270881489473
decision_type=2 9 2 1 2 2 2
left_child=2 -2 3 -1 -3 6 -6
right_child=1 4 -4 -5 5 -7 -8
leaf_value=-0.1578026669169626 0.16153316882899446 -0.041937604807419059 0 -0.015507241616958932 0.10539618336940434 0.12865921430824526 0.051540853240837681
leaf_weight=990 971 92 136 109 221 168 362
leaf_count=990 971 92 136 109 221 168 362
internal_value=0.0200742 0.121646 -0.128279 -0.144636 0.0715247 0.0877537 0.0739109
internal_weight=3049 1814 1235 1099 843 751 583
internal_count=3049 1814 1235 1099 843 751 583
cat_boundaries=0 1 2
cat_threshold=4 2
is_linear=0
shrinkage=0.185339


Tree=15
num_leaves=8
num_cat=2
split_feature=0 11 5 7 0 3 0
split_gain=1318.29 101.071 77.3011 49.5058 39.3931 3.03685 0.573523
threshold=0.28763659675205683 0 1.5000000000000002 1 1.0646064608169785 4.3551907659887856 1.1714620659268635
decision_type=2 9 2 1 2 2 2
left_child=2 4 3 -1 -2 6 -6
right_child=1 -3 -4 -5 5 -7 -8
leaf_value=-0.15723229975096278 -0.041197260379972948 0.15721534756403677 0 -0.014833064423388392 0.072883314251126971 0.11666681736840906 0.025090409085999722
leaf_weight=990 95 1073 136 109 424 141 81
leaf_count=990 95 1073 136 109 424 141 81
internal_value=0.0194409 0.12023 -0.127761 -0.144054 0.0621344 0.0798865 0.0672836
internal_weight=3049 1814 1235 1099 741 646 505
internal_count=3049 1814 1235 1099 741 646 505
cat_boundaries=0 1 2
cat_threshold=578 2
is_linear=0
shrinkage=0.185339


Tree=16
num_leaves=9
num_cat=2
split_feature=0 11 5 7 0 3 0 0
split_gain=1298.32 108.506 76.677 49.5926 36.9183 2.8011 0.297236 0.0451502
threshold=0.28763659675205683 0 1.5000000000000002 1 1.0646064608169785 4.3551907659887856 1.1714620659268635 0.13804865619000689
decision_type=2 9 2 1 2 2 2 2
left_child=2 4 3 7 -2 6 -6 -1
right_child=1 -3 -4 -5 5 -7 -8 -9
leaf_value=-0.16156074824926794 -0.040803033562553569 0.15705419113569444 0 -0.014188196065593362 0.069237276464065176 0.11193833128416555 0.024023855524677507 -0.097897578705240476
leaf_weight=895 95 1073 136 109 424 141 81 95
leaf_count=895 95 1073 136 109 424 141 81 95
internal_value=0.0188529 0.118879 -0.127228 -0.143455 0.0591082 0.0763109 0.0640459 -0.15664
internal_weight=3049 1814 1235 1099 741 646 505 990
internal_count=3049 1814 1235 1099 741 646 505 990
cat_boundaries=0 1 2
cat_threshold=578 2
is_linear=0
shrinkage=0.185339


Tree=17
num_leaves=9
num_cat=2
split_feature=0 11 5 7 0 3 0 4
split_gain=1279.72 116.114 76.1585 49.7377 34.5463 2.46085 1.05427 0.223773
threshold=0.28763659675205683 0 1.5000000000000002 1 1.0646064608169785 4.3551907659887856 0.13804865619000689 -577.75145959854115
decision_type=2 9 2 1 2 2 2 2
left_child=2 4 3 6 -2 7 -1 -6
right_child=1 -3 -4 -5 5 -7 -8 -9
leaf_value=-0.1613624879631137 -0.040412579495223352 0.15691583235190715 0 -0.013571364237596636 0.066041998676345331 0.10695152686392 -0.094763187343721911 0.022964690800427432
leaf_weight=895 95 1073 136 109 421 141 95 84
leaf_count=895 95 1073 136 109 421 141 95 84
internal_value=0.0182457 0.117556 -0.126783 -0.142956 0.0561166 0.0727761 -0.156154 0.0609332
internal_weight=3049 1814 1235 1099 741 646 990 505
internal_count=3049 1814 1235 1099 741 646 990 505
cat_boundaries=0 1 2
cat_threshold=578 2
is_linear=0
shrinkage=0.185339


Tree=18
num_leaves=10
num_cat=2
split_feature=0 11 5 7 0 3 0 3 0
split_gain=1262.52 123.045 75.656 49.8698 32.4533 2.17313 2.02409 0.813632 0.728864
threshold=0.28763659675205683 0 1.5000000000000002 1 1.0646064608169785 1.1680160011004375 0.13804865619000689 0.95167468493473362 1.138497482240717
decision_type=2 9 2 1 2 2 2 2 2
left_child=2 4 3 6 -2 7 -1 -6 -7
right_child=1 -3 -4 -5 5 8 -8 -9 -10
leaf_value=-0.16115376257706451 -0.040025861702731799 0.15675360341531938 0 -0.01298134819150284 0.057252291821169296 0.047066194824795467 -0.091851129010350169 0.012866502195916502 0.097478121682836968
leaf_weight=895 95 1073 136 109 201 115 95 87 243
leaf_count=895 95 1073 136 109 201 115 95 87 243
internal_value=0.0176987 0.116342 -0.126351 -0.14247 0.0534238 0.069589 -0.155681 0.0474158 0.0843505
internal_weight=3049 1814 1235 1099 741 646 990 288 358
internal_count=3049 1814 1235 1099 741 646 990 288 358
cat_boundaries=0 1 2
cat_threshold=578 2
is_linear=0
shrinkage=0.185339


Tree=19
num_leaves=10
num_cat=2
split_feature=0 11 5 7 0 0 3 0 0
split_gain=1247.06 128.978 75.1569 49.9798 30.7178 2.94296 1.78787 0.9632 0.392606
threshold=0.28763659675205683 0 1.5000000000000002 1 1.0646064608169785 0.13804865619000689 1.1232674045570661 1.1545259806474266 1.138497482240717
decision_type=2 9 2 1 2 2 2 2 2
left_child=2 4 3 5 -2 -1 7 -6 -8
right_child=1 -3 -4 -5 6 -7 8 -9 -10
leaf_value=-0.16092063665139666 -0.039696906219600529 0.15657456506546358 0 -0.012416983394969777 0.054862596105319142 -0.089155733002789062 0.044602455410595064 0.0096964877899029696 0.091920765319812442
leaf_weight=895 95 1073 136 109 190 95 115 84 257
leaf_count=895 95 1073 136 109 190 95 115 84 257
internal_value=0.017243 0.115283 -0.125921 -0.141986 0.0511276 -0.155207 0.0668714 0.0447508 0.0802242
internal_weight=3049 1814 1235 1099 741 990 646 274 372
internal_count=3049 1814 1235 1099 741 990 646 274 372
cat_boundaries=0 1 2
cat_threshold=578 2
is_linear=0
shrinkage=0.185339


Tree=20
num_leaves=9
num_cat=2
split_feature=0 11 5 7 0 0 0 0
split_gain=1231.4 135.081 74.6763 50.0812 29.0086 3.83313 1.37917 0.682289
threshold=0.28763659675205683 0 1.5000000000000002 1 1.0646064608169785 0.13804865619000689 1.1884864136738515 1.1717156763490957
decision_type=2 9 2 1 2 2 2 2
left_child=2 4 3 5 -2 -1 7 -6
right_child=1 -3 -4 -5 6 -7 -8 -9
leaf_value=-0.16068784799325811 -0.039393010802084807 0.15636056563528275 0 -0.011877155548832558 0.060336913854750811 -0.086615412527567104 0.10095630882134841 0.018369210421906024
leaf_weight=895 95 1073 136 109 455 95 100 91
leaf_count=895 95 1073 136 109 455 95 100 91
internal_value=0.0167562 0.114182 -0.125504 -0.141519 0.0487796 -0.154749 0.0640975 0.0552289
internal_weight=3049 1814 1235 1099 741 990 646 546
internal_count=3049 1814 1235 1099 741 990 646 546
cat_boundaries=0 1 2
cat_threshold=578 2
is_linear=0
shrinkage=0.185339


Tree=21
num_leaves=8
num_cat=1
split_feature=0 11 0 3 1 4 4
split_gain=1217.06 186.236 59.9024 57.5815 16.659 9.35342 1.47471
threshold=0.14981744762011998 0 0.83004717628485769 1.1525920274784667 0.44513993116634465 -569.63279628753651 -581.52638483047474
decision_type=2 9 2 2 2 2 2
left_child=3 -2 4 -1 -3 6 -4
right_child=1 2 5 -5 -6 -7 -8
leaf_value=-0.15564252642501838 0.16089691747126983 -0.091777317283313925 0.074513666856200353 -0.021244002779475114 0.0043188392519086143 0.1343919820842768 0.042345487560816165
leaf_weight=957 988 108 286 144 101 88 377
leaf_count=957 988 108 286 144 101 88 377
internal_value=0.016209 0.1045 0.0431152 -0.139024 -0.0410258 0.0684579 0.0578742
internal_weight=3049 1948 960 1101 209 751 663
internal_count=3049 1948 960 1101 209 751 663
cat_boundaries=0 1
cat_threshold=4
is_linear=0
shrinkage=0.185339


Tree=22
num_leaves=8
num_cat=1
split_feature=0 11 3 0 1 4 4
split_gain=1200.17 192.287 57.4857 57.0008 16.4248 10.3161 1.05911
threshold=0.14981744762011998 0 1.1525920274784667 0.83004717628485769 0.44513993116634465 -569.63279628753651 -581.52638483047474
decision_type=2 9 2 2 2 2 2
left_child=2 -2 -1 4 -3 6 -5
right_child=1 3 -4 5 -6 -7 -8
leaf_value=-0.15504455016910765 0.16064163671284548 -0.091287318684425453 -0.020785045182075076 0.070544997398842249 0.0040386381168608793 0.13378154393425598 0.040382451935380502
leaf_weight=957 988 108 144 286 101 88 377
leaf_count=957 988 108 144 286 101 88 377
internal_value=0.0157072 0.103387 -0.138444 0.0411439 -0.0409072 0.0658798 0.0550374
internal_weight=3049 1948 1101 960 209 751 663
internal_count=3049 1948 1101 960 209 751 663
cat_boundaries=0 1
cat_threshold=4
is_linear=0
shrinkage=0.185339


Tree=23
num_leaves=8
num_cat=1
split_feature=0 11 3 0 1 4 1
split_gain=1183.64 198.085 57.359 54.243 16.1857 11.1615 1.34972
threshold=0.14981744762011998 0 1.1525920274784667 0.83004717628485769 0.44513993116634465 -569.63279628753651 0.95196776636630542
decision_type=2 9 2 2 2 2 2
left_child=2 -2 -1 4 -3 6 -5
right_child=1 3 -4 5 -6 -7 -8
leaf_value=-0.15443267559497209 0.16037363524811693 -0.090761102774836108 -0.020344416063798929 0.042912521080939646 0.0037766159205132321 0.13295358319204273 0.080115668484944516
leaf_weight=957 988 108 144 525 101 88 138
leaf_count=957 988 108 144 525 101 88 138
internal_value=0.0152308 0.102308 -0.137853 0.0392544 -0.0407609 0.0633997 0.0523409
internal_weight=3049 1948 1101 960 209 751 663
internal_count=3049 1948 1101 960 209 751 663
cat_boundaries=0 1
cat_threshold=4
is_linear=0
shrinkage=0.185339


Tree=24
num_leaves=9
num_cat=1
split_feature=0 11 3 0 1 4 1 5
split_gain=1167.64 203.295 57.1523 51.7061 15.9184 12.0244 1.13941 0.0823204
threshold=0.14981744762011998 0 1.1525920274784667 0.83004717628485769 0.44513993116634465 -569.63279628753651 0.95196776636630542 1.0000000180025095e-35
decision_type=2 9 2 2 2 2 2 2
left_child=2 -2 7 4 -3 6 -5 -1
right_child=1 3 -4 5 -6 -7 -8 -9
leaf_value=-0.16188862228621428 0.16010218996215386 -0.090125801562894473 -0.019930747747192449 0.040759820886751882 0.0035315937201762558 0.13237601701323526 0.076399305682659957 -0.11408057104370017
leaf_weight=769 988 108 144 525 101 88 138 188
leaf_count=769 988 108 144 525 101 88 138 188
internal_value=0.0148276 0.101317 -0.137217 0.0375451 -0.0405494 0.061134 0.0498533 -0.153763
internal_weight=3049 1948 1101 960 209 751 663 957
internal_count=3049 1948 1101 960 209 751 663 957
cat_boundaries=0 1
cat_threshold=4
is_linear=0
shrinkage=0.185339


Tree=25
num_leaves=9
num_cat=1
split_feature=0 11 3 0 1 4 4 5
split_gain=1152.49 208.166 56.9866 49.3441 15.6662 12.8614 1.21947 0.530623
threshold=0.14981744762011998 0 1.1525920274784667 0.83004717628485769 0.44513993116634465 -569.63279628753651 -581.52638483047474 1.0000000180025095e-35
decision_type=2 9 2 2 2 2 2 2
left_child=2 -2 7 4 -3 6 -5 -1
right_child=1 3 -4 5 -6 -7 -8 -9
leaf_value=-0.16145926516148643 0.15980541048428823 -0.089517510247308099 -0.019525489964812709 0.062383752589614316 0.0033024669339016847 0.13182984239971585 0.033333513875085714 -0.11271041137836202
leaf_weight=769 988 108 144 286 101 88 377 188
leaf_count=769 988 108 144 286 101 88 377 188
internal_value=0.0144259 0.100355 -0.136627 0.0359205 -0.0403443 0.0589794 0.0474874 -0.153147
internal_weight=3049 1948 1101 960 209 751 663 957
internal_count=3049 1948 1101 960 209 751 663 957
cat_boundaries=0 1
cat_threshold=4
is_linear=0
shrinkage=0.185339


Tree=26
num_leaves=9
num_cat=1
split_feature=0 11 3 0 1 4 1 5
split_gain=1137.04 212.474 56.7012 47.2142 15.4212 13.6173 1.17086 1.10935
threshold=0.14981744762011998 0 1.1525920274784667 0.83004717628485769 0.44513993116634465 -569.63279628753651 0.95196776636630542 1.0000000180025095e-35
decision_type=2 9 2 2 2 2 2 2
left_child=2 -2 7 4 -3 6 -5 -1
right_child=1 3 -4 5 -6 -7 -8 -9
leaf_value=-0.160959508275551 0.15948862408835446 -0.088913324508883354 -0.019128472739546341 0.036486623409629097 0.0030882071934586158 0.13128592116456636 0.071016723597646866 -0.11101259661348462
leaf_weight=769 988 108 144 525 101 88 138 188
leaf_count=769 988 108 144 525 101 88 138 188
internal_value=0.0141025 0.0994561 -0.135933 0.0344434 -0.040134 0.0570137 0.045335 -0.152409
internal_weight=3049 1948 1101 960 209 751 663 957
internal_count=3049 1948 1101 960 209 751 663 957
cat_boundaries=0 1
cat_threshold=4
is_linear=0
shrinkage=0.185339


Tree=27
num_leaves=9
num_cat=1
split_feature=0 11 3 0 1 4 5 4
split_gain=1121.92 216.413 56.3832 45.1883 15.1521 14.2155 1.8305 1.26486
threshold=0.14981744762011998 0 1.1525920274784667 0.83004717628485769 0.44513993116634465 -569.63279628753651 1.0000000180025095e-35 -581.52638483047474
decision_type=2 9 2 2 2 2 2 2
left_child=2 -2 6 4 -3 7 -1 -5
right_child=1 3 -4 5 -6 -7 -8 -9
leaf_value=-0.1604875005060527 0.15916341776988513 -0.088212976361016215 -0.01873952791221703 0.057811869601124131 0.0028878484201571705 0.13050255195615526 -0.10906175491481658 0.029538486047872362
leaf_weight=769 988 108 144 286 101 88 188 377
leaf_count=769 988 108 144 286 101 88 188 377
internal_value=0.013817 0.0986038 -0.135216 0.0330679 -0.0398669 0.0551633 -0.151643 0.0433455
internal_weight=3049 1948 1101 960 209 751 957 663
internal_count=3049 1948 1101 960 209 751 957 663
cat_boundaries=0 1
cat_threshold=4
is_linear=0
shrinkage=0.185339


Tree=28
num_leaves=9
num_cat=1
split_feature=0 11 3 0 1 4 5 4
split_gain=1107.04 219.89 56.0144 43.287 14.86 14.7168 2.52649 1.09714
threshold=0.14981744762011998 0 1.1525920274784667 0.83004717628485769 0.44513993116634465 -569.63279628753651 1.0000000180025095e-35 -581.52638483047474
decision_type=2 9 2 2 2 2 2 2
left_child=2 -2 6 4 -3 7 -1 -5
right_child=1 3 -4 5 -6 -7 -8 -9
leaf_value=-0.15994733267176875 0.15882614901393854 -0.087418493436396655 -0.018358491887427913 0.055391539807403904 0.0027004865764422613 0.12965393782519968 -0.10714519596066846 0.028179458907191798
leaf_weight=769 988 108 144 286 101 88 188 377
leaf_count=769 988 108 144 286 101 88 188 377
internal_value=0.0135806 0.0978053 -0.134458 0.0318128 -0.0395444 0.0534528 -0.150829 0.0415232
internal_weight=3049 1948 1101 960 209 751 957 663
internal_count=3049 1948 1101 960 209 751 957 663
cat_boundaries=0 1
cat_threshold=4
is_linear=0
shrinkage=0.185339


Tree=29
num_leaves=9
num_cat=1
split_feature=0 11 3 0 4 1 5 1
split_gain=1091.28 223.09 55.5688 41.3295 14.7389 14.5233 3.24741 1.22455
threshold=0.14981744762011998 0 1.1525920274784667 0.83004717628485769 -569.63279628753651 0.44513993116634465 1.0000000180025095e-35 0.95196776636630542
decision_type=2 9 2 2 2 2 2 2
left_child=2 -2 6 5 7 -3 -1 -5
right_child=1 3 -4 4 -6 -7 -8 -9
leaf_value=-0.15933077986813476 0.15841211551396389 -0.08645694210673846 -0.01798520366412976 0.03126829448821155 0.12774234008078428 0.0025252832979955216 -0.1051470305400532 0.06448101749765027
leaf_weight=769 988 108 144 525 88 101 188 138
leaf_count=769 988 108 144 525 88 101 188 138
internal_value=0.0133452 0.0969708 -0.133634 0.0305646 0.051725 -0.0391289 -0.149938 0.0398251
internal_weight=3049 1948 1101 960 751 209 957 663
internal_count=3049 1948 1101 960 751 209 957 663
cat_boundaries=0 1
cat_threshold=4
is_linear=0
shrinkage=0.185339


Tree=30
num_leaves=9
num_cat=1
split_feature=0 11 3 0 4 1 5 4
split_gain=1074.72 226.372 55.0305 39.3499 14.5082 14.1755 4.01428 1.18542
threshold=0.14981744762011998 0 1.1525920274784667 0.83004717628485769 -569.63279628753651 0.44513993116634465 1.0000000180025095e-35 -581.52638483047474
decision_type=2 9 2 2 2 2 2 2
left_child=2 -2 6 5 7 -3 -1 -5
right_child=1 3 -4 4 -6 -7 -8 -9
leaf_value=-0.1586270973154642 0.15799174188297657 -0.085435766538520849 -0.017619505252231583 0.051778358601473909 0.12523288787495254 0.0023614459876683596 -0.10301699759191765 0.025027707279017052
leaf_weight=769 988 108 144 286 88 101 188 377
leaf_count=769 988 108 144 286 88 101 188 377
internal_value=0.0131304 0.0961218 -0.132727 0.0292936 0.0499577 -0.0386768 -0.148951 0.038163
internal_weight=3049 1948 1101 960 751 209 957 663
internal_count=3049 1948 1101 960 751 209 957 663
cat_boundaries=0 1
cat_threshold=4
is_linear=0
shrinkage=0.185339


Tree=31
num_leaves=10
num_cat=1
split_feature=0 11 3 0 4 1 5 1 2
split_gain=1058.1 229.368 54.4333 37.5199 14.1018 13.8492 4.80604 1.07652 0.196553
threshold=0.14981744762011998 0 1.1525920274784667 0.83004717628485769 -569.63279628753651 0.44513993116634465 1.0000000180025095e-35 0.95196776636630542 -0.74849893697185077
decision_type=2 9 2 2 2 2 2 2 2
left_child=2 -2 6 5 7 -3 -1 -5 -8
right_child=1 3 -4 4 -6 -7 8 -9 -10
leaf_value=-0.15786414167684173 0.1575623045997781 -0.084464050996934187 -0.01726124301711655 0.028447794477537924 0.12243796737728817 0.0022082375637481298 -0.064063515506682434 0.060015211688043288 -0.13169979679799396
leaf_weight=769 988 108 144 525 88 101 103 138 85
leaf_count=769 988 108 144 525 88 101 103 138 85
internal_value=0.0129541 0.0953038 -0.131768 0.0280943 0.0482887 -0.0382453 -0.147903 0.0366507 -0.100823
internal_weight=3049 1948 1101 960 751 209 957 663 188
internal_count=3049 1948 1101 960 751 209 957 663 188
cat_boundaries=0 1
cat_threshold=4
is_linear=0
shrinkage=0.185339


Tree=32
num_leaves=10
num_cat=1
split_feature=0 11 3 0 4 1 5 4 2
split_gain=1041.8 232.345 53.8378 35.7302 13.7013 13.5204 5.35441 1.2368 0.559074
threshold=0.14981744762011998 0 1.1525920274784667 0.83004717628485769 -569.63279628753651 0.44513993116634465 1.0000000180025095e-35 -581.52638483047474 -0.74849893697185077
decision_type=2 9 2 2 2 2 2 2 2
left_child=2 -2 6 5 7 -3 -1 -5 -8
right_child=1 3 -4 4 -6 -7 8 -9 -10
leaf_value=-0.15700721126465014 0.15714174933285258 -0.083462122840707989 -0.016910265142104867 0.048480387334789571 0.11965952710095713 0.0020649698805498364 -0.061716817309420309 0.022255883198666671 -0.13063556871208609
leaf_weight=769 988 108 144 286 88 101 103 377 85
leaf_count=769 988 108 144 286 88 101 103 377 85
internal_value=0.0127841 0.0944993 -0.130816 0.0269127 0.0466368 -0.0377932 -0.146861 0.0351557 -0.0990399
internal_weight=3049 1948 1101 960 751 209 957 663 188
internal_count=3049 1948 1101 960 751 209 957 663 188
cat_boundaries=0 1
cat_threshold=4
is_linear=0
shrinkage=0.185339


Tree=33
num_leaves=9
num_cat=2
split_feature=0 11 7 0 1 4 3 4
split_gain=1027.04 251.075 53.2052 39.0361 13.6461 13.2709 8.81773 1.14096
threshold=0.12766809466489296 0 1 0.83004717628485769 0.44513993116634465 -569.63279628753651 1.0802301878716092 -585.18018269538868
decision_type=2 9 1 2 2 2 2 2
left_child=2 -2 6 4 -3 7 -1 -5
right_child=1 3 -4 5 -6 -7 -8 -9
leaf_value=-0.1573065458144304 0.15673604792293266 -0.08534054964413193 -0.012447979081281648 0.065508698052979125 0 0.11692752520770318 -0.070339996623777018 0.027422008587934615
leaf_weight=839 993 112 126 82 136 88 92 581
leaf_count=839 993 112 126 82 136 88 92 581
internal_value=0.0126317 0.091261 -0.13452 0.0232265 -0.0379781 0.0451006 -0.149926 0.0337853
internal_weight=3049 1992 1057 999 248 751 931 663
internal_count=3049 1992 1057 999 248 751 931 663
cat_boundaries=0 1 2
cat_threshold=4 2
is_linear=0
shrinkage=0.185339


Tree=34
num_leaves=9
num_cat=2
split_feature=0 11 7 0 1 4 3 6
split_gain=1014.1 252.791 53.0495 37.2628 13.3425 12.7485 8.81861 1.69103
threshold=0.12766809466489296 0 1 0.83004717628485769 0.44513993116634465 -569.63279628753651 1.0802301878716092 1.0000000180025095e-35
decision_type=2 9 1 2 2 2 2 2
left_child=2 -2 6 4 -3 7 -1 -5
right_child=1 3 -4 5 -6 -7 -8 -9
leaf_value=-0.15664015856899827 0.15615136956109246 -0.084367977690117293 -0.012014860293668122 0.0076572545725228907 0 0.1140329135669821 -0.069784301558802803 0.038834303580513936
leaf_weight=839 993 112 126 167 136 88 92 496
leaf_count=839 993 112 126 167 136 88 92 496
internal_value=0.0123309 0.0904657 -0.13389 0.022239 -0.0375349 0.0436277 -0.14927 0.0325085
internal_weight=3049 1992 1057 999 248 751 931 663
internal_count=3049 1992 1057 999 248 751 931 663
cat_boundaries=0 1 2
cat_threshold=4 2
is_linear=0
shrinkage=0.185339


Tree=35
num_leaves=9
num_cat=2
split_feature=0 11 7 0 1 4 3 4
split_gain=1001.26 253.912 52.8482 35.6673 13.0457 12.1975 8.80198 1.27599
threshold=0.12766809466489296 0 1 0.83004717628485769 0.44513993116634465 -569.63279628753651 1.0802301878716092 -585.18018269538868
decision_type=2 9 1 2 2 2 2 2
left_child=2 -2 6 4 -3 7 -1 -5
right_child=1 3 -4 5 -6 -7 -8 -9
leaf_value=-0.15593045018697685 0.15552440327477557 -0.083406489445928975 -0.011596811925995638 0.063061468672514165 0 0.11120996020686598 -0.069232996542080025 0.025040267987066041
leaf_weight=839 993 112 126 82 136 88 92 581
leaf_count=839 993 112 126 82 136 88 92 581
internal_value=0.0120632 0.089704 -0.133227 0.0213598 -0.0370968 0.0423018 -0.148575 0.0313887
internal_weight=3049 1992 1057 999 248 751 931 663
internal_count=3049 1992 1057 999 248 751 931 663
cat_boundaries=0 1 2
cat_threshold=4 2
is_linear=0
shrinkage=0.185339


Tree=36
num_leaves=9
num_cat=2
split_feature=0 11 7 0 1 4 5 6
split_gain=988.6 255.091 52.617 34.1356 12.7555 11.7648 9.69428 1.77345
threshold=0.12766809466489296 0 1 0.83004717628485769 0.44513993116634465 -569.63279628753651 1.0000000180025095e-35 1.0000000180025095e-35
decision_type=2 9 1 2 2 2 2 2
left_child=2 -2 6 4 -3 7 -1 -5
right_child=1 3 -4 5 -6 -7 -8 -9
leaf_value=-0.15829063485832018 0.15493306571566431 -0.082455958776939842 -0.011193308697752414 0.0055935360136152926 0 0.10867710341676584 -0.08625692130451143 0.036534529179635983
leaf_weight=780 993 112 126 167 136 88 151 496
leaf_count=780 993 112 126 167 136 88 151 496
internal_value=0.0118197 0.0889706 -0.132547 0.020501 -0.0366637 0.0410049 -0.147859 0.0302623
internal_weight=3049 1992 1057 999 248 751 931 663
internal_count=3049 1992 1057 999 248 751 931 663
cat_boundaries=0 1 2
cat_threshold=4 2
is_linear=0
shrinkage=0.185339


Tree=37
num_leaves=10
num_cat=2
split_feature=0 11 7 0 1 4 5 3 4
split_gain=977.503 255.769 52.5011 32.75 12.4719 11.389 10.3867 1.52537 0.334216
threshold=0.12766809466489296 0 1 0.83004717628485769 0.44513993116634465 -569.63279628753651 1.0000000180025095e-35 1.0924424003027899 10.194303989410402
decision_type=2 9 1 2 2 2 2 2 2
left_child=2 8 6 4 -3 7 -1 -5 -2
right_child=1 3 -4 5 -6 -7 -8 -9 -10
leaf_value=-0.15792631784201863 0.16054491269446161 -0.08151626051285249 -0.010803845311337344 0.011553320002211412 0 0.10640778728952262 -0.084687959361448031 0.037917733796845064 0.093643133850021737
leaf_weight=780 906 112 126 257 136 88 151 406 87
leaf_count=780 906 112 126 257 136 88 151 406 87
internal_value=0.0115483 0.0882672 -0.132005 0.0197345 -0.0362355 0.0398336 -0.147296 0.0292427 0.154308
internal_weight=3049 1992 1057 999 248 751 931 663 993
internal_count=3049 1992 1057 999 248 751 931 663 993
cat_boundaries=0 1 2
cat_threshold=4 2
is_linear=0
shrinkage=0.185339


Tree=38
num_leaves=10
num_cat=2
split_feature=0 11 7 0 1 5 4 6 4
split_gain=966.649 256.468 52.3646 31.4257 12.1946 11.0649 11.0079 1.88781 0.916581
threshold=0.12766809466489296 0 1 0.83004717628485769 0.44513993116634465 1.0000000180025095e-35 -569.63279628753651 1.0000000180025095e-35 10.194303989410402
decision_type=2 9 1 2 2 2 2 2 2
left_child=2 8 5 4 -3 -1 7 -5 -2
right_child=1 3 -4 6 -6 -7 -8 -9 -10
leaf_value=-0.15754387196881026 0.16009645582291596 -0.080587271548490588 -0.010427933135977001 0.0036192613898953928 0 -0.083147535730814112 0.10414696474001923 0.034531266085943778 0.091509164593977607
leaf_weight=780 906 112 126 167 136 151 88 496 87
leaf_count=780 906 112 126 167 136 151 88 496 87
internal_value=0.0112978 0.0875917 -0.131455 0.0189924 -0.0358122 -0.146723 0.0386968 0.0282609 0.153715
internal_weight=3049 1992 1057 999 248 931 751 663 993
internal_count=3049 1992 1057 999 248 931 751 663 993
cat_boundaries=0 1 2
cat_threshold=4 2
is_linear=0
shrinkage=0.185339


Tree=39
num_leaves=10
num_cat=2
split_feature=0 11 5 7 0 1 4 3 4
split_gain=955.374 256.827 52.1633 34.3786 30.1748 11.9224 10.5601 1.64733 1.4862
threshold=0.12766809466489296 0 1.5000000000000002 1 0.83004717628485769 0.44513993116634465 -569.63279628753651 1.0924424003027899 10.194303989410402
decision_type=2 9 2 1 2 2 2 2 2
left_child=2 8 3 -1 5 -3 7 -6 -2
right_child=1 4 -4 -5 6 -7 -8 -9 -10
leaf_value=-0.15463677433464401 0.15959252476596189 -0.079664747409453271 0 -0.013835274227536963 0.0096519134648092985 0 0.10175736622382502 0.036049996963323817 0.089409206369404817
leaf_weight=880 906 112 96 81 257 136 88 406 87
leaf_count=880 906 112 96 81 257 136 88 406 87
internal_value=0.0110623 0.0869122 -0.130853 -0.143843 0.0182892 -0.0353919 0.0376131 0.0273566 0.153074
internal_weight=3049 1992 1057 961 999 248 751 663 993
internal_count=3049 1992 1057 961 999 248 751 663 993
cat_boundaries=0 1 2
cat_threshold=4 2
is_linear=0
shrinkage=0.185339


Tree=40
num_leaves=10
num_cat=2
split_feature=0 11 7 0 1 5 4 4 6
split_gain=944.987 260.74 53.0155 29.8636 12.876 11.9345 10.0803 2.09703 1.99204
threshold=0.11768742165819455 0 1 0.83004717628485769 0.44513993116634465 1.0000000180025095e-35 -569.63279628753651 10.194303989410402 1.0000000180025095e-35
decision_type=2 9 1 2 2 2 2 2 2
left_child=2 7 5 4 -3 -1 8 -2 -5
right_child=1 3 -4 6 -6 -7 -8 -9 -10
leaf_value=-0.15822163937307696 0.15902299057725089 -0.080128377541790613 -0.0099179785013372105 0.001830188600586202 0 -0.081941560631220711 0.099238301285638111 0.087175125016622182 0.032721232139263506
leaf_weight=770 907 117 126 167 141 150 88 87 496
leaf_count=770 907 117 126 167 141 150 88 87 496
internal_value=0.0107594 0.0856016 -0.131514 0.0170179 -0.0351329 -0.147044 0.0365128 0.152368 0.0264512
internal_weight=3049 2003 1046 1009 258 920 751 994 663
internal_count=3049 2003 1046 1009 258 920 751 994 663
cat_boundaries=0 1 2
cat_threshold=4 2
is_linear=0
shrinkage=0.185339


Tree=41
num_leaves=10
num_cat=2
split_feature=0 11 7 0 5 1 4 4 4
split_gain=933.955 260.028 52.7174 28.6136 12.7089 12.5282 9.59676 2.72115 1.76111
threshold=0.11768742165819455 0 1 0.83004717628485769 1.0000000180025095e-35 0.44513993116634465 -569.63279628753651 10.194303989410402 -585.18018269538868
decision_type=2 9 1 2 2 2 2 2 2
left_child=2 7 4 5 -1 -3 8 -2 -5
right_child=1 3 -4 6 -6 -7 -8 -9 -10
leaf_value=-0.15784493057149265 0.15834007164175429 -0.079003695905292201 -0.0097050279887961818 0.058063867725862375 -0.080277892439807305 0 0.096781597524835089 0.084848540506930803 0.019200576113231047
leaf_weight=770 907 117 126 82 150 141 88 87 581
leaf_count=770 907 117 126 82 150 141 88 87 581
internal_value=0.0104697 0.0848762 -0.130969 0.0164037 -0.146454 -0.0346185 0.0355024 0.151546 0.025639
internal_weight=3049 2003 1046 1009 920 258 751 994 663
internal_count=3049 2003 1046 1009 920 258 751 994 663
cat_boundaries=0 1 2
cat_threshold=4 2
is_linear=0
shrinkage=0.185339


Tree=42
num_leaves=10
num_cat=2
split_feature=0 11 5 7 0 1 4 4 6
split_gain=922.732 258.592 52.5568 34.5959 27.3554 12.1507 9.16866 3.29951 2.0299
threshold=0.11768742165819455 0 1.5000000000000002 1 0.83004717628485769 0.44513993116634465 -569.63279628753651 10.194303989410402 1.0000000180025095e-35
decision_type=2 9 2 1 2 2 2 2 2
left_child=2 7 3 -1 5 -3 8 -2 -6
right_child=1 4 -4 -5 6 -7 -8 -9 -10
leaf_value=-0.15451782436722378 0.15747095223875246 -0.077764915442539176 0 -0.013329004782613197 0.00039986970133627688 0 0.094450831064253948 0.082536073705878066 0.031024093475253169
leaf_weight=870 907 117 95 81 167 141 88 87 496
leaf_count=870 907 117 95 81 167 141 88 87 496
internal_value=0.0101154 0.0840761 -0.13047 -0.143577 0.0158075 -0.0340519 0.0344984 0.150556 0.0248171
internal_weight=3049 2003 1046 951 1009 258 751 994 663
internal_count=3049 2003 1046 951 1009 258 751 994 663
cat_boundaries=0 1 2
cat_threshold=4 2
is_linear=0
shrinkage=0.185339


Tree=43
num_leaves=10
num_cat=2
split_feature=0 11 5 7 0 1 4 4 3
split_gain=911.47 256.453 52.1377 34.3676 26.1765 11.7416 8.74287 3.83358 1.97879
threshold=0.11768742165819455 0 1.5000000000000002 1 0.83004717628485769 0.44513993116634465 -569.63279628753651 10.194303989410402 1.0924424003027899
decision_type=2 9 2 1 2 2 2 2 2
left_child=2 7 3 -1 5 -3 8 -2 -6
right_child=1 4 -4 -5 6 -7 -8 -9 -10
leaf_value=-0.15390356017110601 0.15650985843328785 -0.07640107199132587 0 -0.01315008007498991 0.0060775120197894281 0 0.092235407209110207 0.080297658886055903 0.033031417290052309
leaf_weight=870 907 117 95 81 257 141 88 87 406
leaf_count=870 907 117 95 81 257 141 88 87 406
internal_value=0.00977881 0.0832894 -0.129945 -0.142999 0.0153129 -0.0334282 0.0336125 0.14949 0.0241133
internal_weight=3049 2003 1046 951 1009 258 751 994 663
internal_count=3049 2003 1046 951 1009 258 751 994 663
cat_boundaries=0 1 2
cat_threshold=4 2
is_linear=0
shrinkage=0.185339


Tree=44
num_leaves=10
num_cat=2
split_feature=0 11 5 7 0 1 4 4 6
split_gain=899.033 254.075 51.6282 34.0616 24.9642 11.3007 8.29857 4.32842 2.06077
threshold=0.11768742165819455 0 1.5000000000000002 1 0.83004717628485769 0.44513993116634465 -569.63279628753651 10.194303989410402 1.0000000180025095e-35
decision_type=2 9 2 1 2 2 2 2 2
left_child=2 7 3 -1 5 -3 8 -2 -6
right_child=1 4 -4 -5 6 -7 -8 -9 -10
leaf_value=-0.15314963766249101 0.15547315370468837 -0.074903819871715557 0 -0.012973557164690371 0 0 0.089914408982220945 0.078124640615434601 0.029556122842613143
leaf_weight=870 907 117 95 81 167 141 88 87 496
leaf_count=870 907 117 95 81 167 141 88 87 496
internal_value=0.00946194 0.0824721 -0.129304 -0.142294 0.0148198 -0.0327434 0.0327075 0.148361 0.0234022
internal_weight=3049 2003 1046 951 1009 258 751 994 663
internal_count=3049 2003 1046 951 1009 258 751 994 663
cat_boundaries=0 1 2
cat_threshold=4 2
is_linear=0
shrinkage=0.185339


Tree=45
num_leaves=11
num_cat=2
split_feature=0 11 5 7 0 1 4 4 3 0
split_gain=886.702 251.281 51.1362 33.7679 23.852 10.889 7.93241 4.71727 1.99845 0.208675
threshold=0.11768742165819455 0 1.5000000000000002 1 0.83004717628485769 0.44513993116634465 -569.63279628753651 10.194303989410402 1.0924424003027899 -0.01369412424947262
decision_type=2 9 2 1 2 2 2 2 2 2
left_child=2 7 3 9 5 -3 8 -2 -6 -1
right_child=1 4 -4 -5 6 -7 -8 -9 -10 -11
leaf_value=-0.16067676994315944 0.15433607514347852 -0.07347954505756657 0 -0.01279940384705747 0.0048507677214877556 0 0.087862669350816297 0.076168848587867863 0.031548783911025981 -0.10983372692079957
leaf_weight=705 907 117 95 81 257 141 88 87 406 165
leaf_count=705 907 117 95 81 257 141 88 87 406 165
internal_value=0.00912773 0.0816383 -0.128681 -0.14161 0.0143648 -0.032092 0.0318657 0.147161 0.0227262 -0.152418
internal_weight=3049 2003 1046 951 1009 258 751 994 663 870
internal_count=3049 2003 1046 951 1009 258 751 994 663 870
cat_boundaries=0 1 2
cat_threshold=4 2
is_linear=0
shrinkage=0.185339


Tree=46
num_leaves=11
num_cat=2
split_feature=0 11 5 7 0 1 4 4 6 0
split_gain=874.898 248.373 50.6753 33.496 22.8093 10.4926 7.676 5.08906 2.06807 0.641418
threshold=0.11768742165819455 0 1.5000000000000002 1 0.83004717628485769 0.44513993116634465 -569.63279628753651 10.194303989410402 1.0000000180025095e-35 -0.01369412424947262
decision_type=2 9 2 1 2 2 2 2 2 2
left_child=2 7 3 9 5 -3 8 -2 -6 -1
right_child=1 4 -4 -5 6 -7 -8 -9 -10 -11
leaf_value=-0.16017120129059639 0.15319400704103245 -0.072082605366032948 0 -0.012630438917216978 0 0 0.08617019323250287 0.074262018670516808 0.028149097391111089 -0.10838069971502699
leaf_weight=705 907 117 95 81 167 141 88 87 496 165
leaf_count=705 907 117 95 81 167 141 88 87 496 165
internal_value=0.00879178 0.0808209 -0.128096 -0.140966 0.0139423 -0.0314531 0.0310723 0.145961 0.0220564 -0.15173
internal_weight=3049 2003 1046 951 1009 258 751 994 663 870
internal_count=3049 2003 1046 951 1009 258 751 994 663 870
cat_boundaries=0 1 2
cat_threshold=4 2
is_linear=0
shrinkage=0.185339


Tree=47
num_leaves=11
num_cat=2
split_feature=0 11 7 0 5 2 4 4 2 4
split_gain=863.411 244.981 50.2298 21.7483 19.9573 10.1583 7.53112 5.42776 2.44267 2.1499
threshold=0.11768742165819455 0 1 0.83004717628485769 1.0000000180025095e-35 -0.31344253516875803 -569.63279628753651 10.194303989410402 -0.85548968466002684 -585.18018269538868
decision_type=2 9 1 2 2 2 2 2 2 2
left_child=2 7 4 5 -1 8 9 -2 -3 -5
right_child=1 3 -4 6 -6 -7 -8 -9 -10 -11
leaf_value=-0.15589643029600733 0.15199534782192711 -0.024524977337030393 -0.0089778912504901338 0.054550512209585837 -0.066993441214535224 -0.078289006111075574 0.084877218732703291 0.072402924402967361 0.020103160307372078 0.014877908262218015
leaf_weight=770 907 82 126 82 150 95 88 87 81 581
leaf_count=770 907 82 126 82 150 95 88 87 81 581
internal_value=0.00846412 0.0800216 -0.12752 0.0136014 -0.142635 -0.0306819 0.030344 0.144714 0 0.0214064
internal_weight=3049 2003 1046 1009 920 258 751 994 163 663
internal_count=3049 2003 1046 1009 920 258 751 994 163 663
cat_boundaries=0 1 2
cat_threshold=4 2
is_linear=0
shrinkage=0.185339


Tree=48
num_leaves=11
num_cat=2
split_feature=0 11 5 7 0 1 4 4 4 0
split_gain=851.875 241.376 50.9028 33.0076 20.8061 9.76905 7.42693 5.78122 2.04818 1.56153
threshold=0.11768742165819455 0 1.5000000000000002 1 0.83004717628485769 0.44513993116634465 -569.63279628753651 9.1756401062011737 -585.18018269538868 -0.01369412424947262
decision_type=2 9 2 1 2 2 2 2 2 2
left_child=2 7 3 9 5 -3 8 -2 -6 -1
right_child=1 4 -4 -5 6 -7 -8 -9 -10 -11
leaf_value=-0.15938649573337008 0.15089920809053331 -0.069245093349871514 0 -0.012388718882932385 0.053181186930082579 0 0.083732529524467414 0.072201610468797681 0.014343654250406139 -0.10558588548660694
leaf_weight=705 903 117 95 81 82 141 88 91 581 165
leaf_count=705 903 117 95 81 82 141 88 91 581 165
internal_value=0.00809916 0.0791799 -0.126973 -0.139873 0.0132503 -0.0300256 0.0296412 0.143392 0.0207654 -0.150559
internal_weight=3049 2003 1046 951 1009 258 751 994 663 870
internal_count=3049 2003 1046 951 1009 258 751 994 663 870
cat_boundaries=0 1 2
cat_threshold=4 2
is_linear=0
shrinkage=0.185339


Tree=49
num_leaves=12
num_cat=2
split_feature=0 11 5 7 0 2 4 4 6 0 2
split_gain=840.609 237.394 50.4363 32.7133 19.7058 9.72699 7.34078 6.09389 2.14845 2.03981 1.95133
threshold=0.11768742165819455 0 1.5000000000000002 1 0.83004717628485769 -0.31344253516875803 -569.63279628753651 9.1756401062011737 1.0000000180025095e-35 -0.01369412424947262 -0.85548968466002684
decision_type=2 9 2 1 2 2 2 2 2 2 2
left_child=2 7 3 9 5 10 8 -2 -6 -1 -3
right_child=1 4 -4 -5 6 -7 -8 -9 -10 -11 -12
leaf_value=-0.15887815179656248 0.14963604384248058 -0.021242153334009334 0 -0.012250133362922976 0 -0.075582416578765479 0.082696104969078379 0.070378558699595126 0.026290836161849879 -0.10407732996178626 0.018773856635190642
leaf_weight=705 903 82 95 81 167 95 88 91 496 165 81
leaf_count=705 903 82 95 81 167 95 88 91 496 165 81
internal_value=0.0077956 0.0784075 -0.126379 -0.13922 0.0130187 -0.0290378 0.0289863 0.142088 0.0201638 -0.149859 0
internal_weight=3049 2003 1046 951 1009 258 751 994 663 870 163
internal_count=3049 2003 1046 951 1009 258 751 994 663 870 163
cat_boundaries=0 1 2
cat_threshold=4 2
is_linear=0
shrinkage=0.185339


Tree=50
num_leaves=12
num_cat=1
split_feature=0 11 5 3 0 3 2 4 4 3 2
split_gain=829.012 233.647 50.8723 20.2094 18.8502 11.1372 9.22536 7.25106 6.32054 2.1538 1.70312
threshold=0.11768742165819455 0 1.0000000180025095e-35 0.64587929263921862 0.83004717628485769 1.055997817498157 -0.31344253516875803 -569.63279628753651 9.1756401062011737 1.0924424003027899 -0.85548968466002684
decision_type=2 9 2 2 2 2 2 2 2 2 2
left_child=2 8 5 -4 6 -1 10 9 -2 -6 -3
right_child=1 4 3 -5 7 -7 -8 -9 -10 -11 -12
leaf_value=-0.15914090130149139 0.14833844891041309 -0.019976440029683972 -0.08423520035141728 0.021409014895064086 0.0017979420554190223 -0.075552687602893631 -0.07370192320397799 0.08167250888970988 0.068747212450345249 0.028366882158783118 0.017387773054153725
leaf_weight=692 903 82 154 82 257 118 95 88 91 406 81
leaf_count=692 903 82 154 82 257 118 95 88 91 406 81
internal_value=0.00746918 0.0775952 -0.125775 -0.0434976 0.012722 -0.148378 -0.0283704 0.0283537 0.14077 0.0195857 0
internal_weight=3049 2003 1046 236 1009 810 258 751 994 663 163
internal_count=3049 2003 1046 236 1009 810 258 751 994 663 163
cat_boundaries=0 1
cat_threshold=4
is_linear=0
shrinkage=0.185339


Tree=51
num_leaves=12
num_cat=1
split_feature=0 11 5 3 0 3 2 4 4 6 2
split_gain=817.688 229.885 51.7435 19.2239 18.0449 11.128 8.89695 7.15626 6.4476 2.12308 1.33219
threshold=0.11768742165819455 0 1.0000000180025095e-35 0.64587929263921862 0.83004717628485769 1.055997817498157 -0.30285094157652998 -569.63279628753651 7.9696736335754403 1.0000000180025095e-35 -0.85548968466002684
decision_type=2 9 2 2 2 2 2 2 2 2 2
left_child=2 8 5 -4 6 -1 10 9 -2 -6 -3
right_child=1 4 3 -5 7 -7 -8 -9 -10 -11 -12
leaf_value=-0.15871013060545758 0.14757840238719022 -0.018828281788396937 -0.082110403184190772 0.020738550080446436 0 -0.075202151529697378 -0.074179263000201209 0.080661582741705554 0.072419653506276743 0.025107783323856579 0.01351284938877168
leaf_weight=692 890 82 154 82 167 118 90 88 104 496 86
leaf_count=692 890 82 154 82 167 118 90 88 104 496 86
internal_value=0.00714237 0.0767908 -0.125187 -0.0423417 0.0124389 -0.147958 -0.0277258 0.0277473 0.139454 0.0190357 0
internal_weight=3049 2003 1046 236 1009 810 258 751 994 663 168
internal_count=3049 2003 1046 236 1009 810 258 751 994 663 168
cat_boundaries=0 1
cat_threshold=4
is_linear=0
shrinkage=0.185339


Tree=52
num_leaves=13
num_cat=1
split_feature=0 11 5 3 0 3 2 3 2 4 0 2
split_gain=806.691 226.755 52.5337 18.2028 17.4316 11.1021 8.60434 7.14041 7.81523 6.52272 3.12536 1.16371
threshold=0.11768742165819455 0 1.0000000180025095e-35 0.64587929263921862 0.83004717628485769 1.055997817498157 -0.30285094157652998 2.4961805794672931 0.52449026970719481 7.9696736335754403 1.1626337796065431 -0.85548968466002684
decision_type=2 9 2 2 2 2 2 2 2 2 2 2
left_child=2 9 5 -4 6 -1 11 10 -9 -2 -6 -3
right_child=1 4 3 -5 7 -7 -8 8 -10 -11 -12 -13
leaf_value=-0.15824251580131984 0.14637610102785703 -0.017746114743613806 -0.079962046957398558 0.019894301756913705 0.017725628158862874 -0.074853241720551397 -0.073020364035600596 0.079545329351078359 0.012965722352619337 0.07124590419797483 -0.018555734704098593 0.012429421290164324
leaf_weight=692 890 82 154 82 343 118 90 158 168 104 82 86
leaf_count=692 890 82 154 82 343 118 90 158 168 104 82 86
internal_value=0.00684962 0.0760309 -0.124586 -0.0412316 0.0121186 -0.147507 -0.0273333 0.0271775 0.04851 0.138264 0.00836365 0
internal_weight=3049 2003 1046 236 1009 810 258 751 326 994 425 168
internal_count=3049 2003 1046 236 1009 810 258 751 326 994 425 168
cat_boundaries=0 1
cat_threshold=4
is_linear=0
shrinkage=0.185339


Tree=53
num_leaves=11
num_cat=1
split_feature=0 11 5 5 0 3 3 3 4 3
split_gain=795.837 223.817 53.2572 17.7958 21.8463 17.1894 11.1036 8.80085 6.49697 2.40618
threshold=0.11768742165819455 0 1.0000000180025095e-35 1.5000000000000002 0.83004717628485769 0.64587929263921862 1.055997817498157 1.0371718935178824 7.9696736335754403 1.0924424003027899
decision_type=2 9 2 2 2 2 2 2 2 2
left_child=2 8 6 4 7 -4 -1 -3 -2 -6
right_child=1 3 5 -5 9 -7 -8 -9 -10 -11
leaf_value=-0.1577079064031123 0.14524108127520949 0 -0.077782894843785491 0.089728921563517833 0.00080234664972752819 0.019014734525867032 -0.074392853168002177 -0.078682624269966486 0.070367254167698096 0.027793174443188531
leaf_weight=692 890 81 154 91 257 82 118 126 104 454
leaf_count=692 890 81 154 91 257 82 118 126 104 454
internal_value=0.00662107 0.075338 -0.123925 0.0118405 0.00301124 -0.0401138 -0.146982 -0.0483961 0.137165 0.0194486
internal_weight=3049 2003 1046 1009 918 236 810 207 994 711
internal_count=3049 2003 1046 1009 918 236 810 207 994 711
cat_boundaries=0 1
cat_threshold=4
is_linear=0
shrinkage=0.185339


Tree=54
num_leaves=11
num_cat=1
split_feature=0 11 5 5 0 3 3 3 4 3
split_gain=785.405 220.982 53.8664 16.8976 20.3851 16.2357 11.1316 8.14495 6.52643 2.24153
threshold=0.11768742165819455 0 1.0000000180025095e-35 1.5000000000000002 0.83004717628485769 0.64587929263921862 1.055997817498157 1.0371718935178824 7.9696736335754403 1.0924424003027899
decision_type=2 9 2 2 2 2 2 2 2 2
left_child=2 8 6 4 7 -4 -1 -3 -2 -6
right_child=1 3 5 -5 9 -7 -8 -9 -10 -11
leaf_value=-0.15709007463260521 0.14424472334799346 0 -0.075655258886217561 0.087579404889862336 0.00077477034455037883 0.018182214740234702 -0.073808987080955193 -0.075716774750062485 0.069472197665636268 0.027002149244174052
leaf_weight=692 890 81 154 91 257 82 118 126 104 454
leaf_count=692 890 81 154 91 257 82 118 126 104 454
internal_value=0.00648635 0.0747536 -0.1232 0.0116562 0.00302367 -0.0390132 -0.146368 -0.0465806 0.136188 0.0189328
internal_weight=3049 2003 1046 1009 918 236 810 207 994 711
internal_count=3049 2003 1046 1009 918 236 810 207 994 711
cat_boundaries=0 1
cat_threshold=4
is_linear=0
shrinkage=0.185339


Tree=55
num_leaves=11
num_cat=1
split_feature=0 11 5 5 0 3 3 3 4 3
split_gain=774.68 217.805 54.5128 16.0894 19.0247 15.3253 11.2819 7.53775 6.60405 2.09136
threshold=0.11768742165819455 0 1.0000000180025095e-35 1.5000000000000002 0.83004717628485769 0.64587929263921862 1.055997817498157 1.0371718935178824 7.9696736335754403 1.0980507425198931
decision_type=2 9 2 2 2 2 2 2 2 2
left_child=2 8 6 4 7 -4 -1 -3 -2 -6
right_child=1 3 5 -5 9 -7 -8 -9 -10 -11
leaf_value=-0.15650794883607339 0.14317006016636569 0 -0.073518511853702173 0.085593537790975116 0.00083523659082347006 0.017418535979575472 -0.073014382550439696 -0.072862719831939107 0.068397338513053088 0.026297239761012909
leaf_weight=692 890 81 154 91 259 82 118 126 104 452
leaf_count=692 890 81 154 91 259 82 118 126 104 452
internal_value=0.00632895 0.074131 -0.122467 0.0114837 0.00303266 -0.0378823 -0.145753 -0.0448335 0.135122 0.0184325
internal_weight=3049 2003 1046 1009 918 236 810 207 994 711
internal_count=3049 2003 1046 1009 918 236 810 207 994 711
cat_boundaries=0 1
cat_threshold=4
is_linear=0
shrinkage=0.185339


Tree=56
num_leaves=12
num_cat=1
split_feature=0 11 5 5 0 3 3 3 4 3 3
split_gain=763.558 214.624 55.0049 15.3274 17.733 14.4778 11.3865 6.96722 6.69277 1.94397 0.177365
threshold=0.11768742165819455 0 1.0000000180025095e-35 1.5000000000000002 0.83004717628485769 0.64587929263921862 1.055997817498157 1.0448069762459193 7.9696736335754403 1.0980507425198931 1.1680160011004375
decision_type=2 9 2 2 2 2 2 2 2 2 2
left_child=2 8 6 4 7 -4 -1 -3 10 -6 -2
right_child=1 3 5 -5 9 -7 -8 -9 -10 -11 -12
leaf_value=-0.15581809711817585 0.15816709328563405 0 -0.071470424110370218 0.083673619787299008 0.00080615641939404091 0.016686933280503545 -0.072217826592940446 -0.070340243615228559 0.067295231055927288 0.025538338654701995 0.12007436538513677
leaf_weight=692 482 82 154 91 259 82 118 125 104 452 408
leaf_count=692 482 82 154 91 259 82 118 125 104 452 408
internal_value=0.00619278 0.0735088 -0.121673 0.0113154 0.00303971 -0.0367983 -0.145046 -0.0431169 0.134052 0.0179387 0.142095
internal_weight=3049 2003 1046 1009 918 236 810 207 994 711 890
internal_count=3049 2003 1046 1009 918 236 810 207 994 711 890
cat_boundaries=0 1
cat_threshold=4
is_linear=0
shrinkage=0.185339


Tree=57
num_leaves=13
num_cat=1
split_feature=0 11 5 5 0 3 0 1 4 2 3 3
split_gain=752.143 212.015 55.3573 14.5242 16.643 13.6721 12.601 11.7544 6.86188 6.68975 2.16077 0.823246
threshold=0.11768742165819455 0 1.0000000180025095e-35 1.5000000000000002 0.84595503494761737 0.64587929263921862 -0.01369412424947262 0.54912157247514737 7.9696736335754403 -0.31344253516875803 2.4961805794672931 1.1680160011004375
decision_type=2 9 2 2 2 2 2 2 2 2 2 2
left_child=2 8 6 4 9 -4 -1 -8 11 -3 -6 -2
right_child=1 3 5 -5 10 -7 7 -9 -10 -11 -12 -13
leaf_value=-0.1588410370242371 0.15776292249463972 -0.0056165609545767549 -0.069455992282558318 0.081569065968584709 0.0062669055615262332 0.01598346505455444 -0.020840378930389744 -0.13403843719949413 0.066116525259088968 -0.082286465038589801 0.031578682209903154 0.11851328948108705
leaf_weight=633 482 132 154 91 421 82 86 91 104 84 281 408
leaf_count=633 482 132 154 91 421 82 86 91 104 84 281 408
internal_value=0.00611084 0.0729242 -0.120793 0.0111078 0.00302174 -0.0357263 -0.144225 -0.085337 0.133098 -0.0404062 0.017857 0.141158
internal_weight=3049 2003 1046 1009 918 236 810 177 994 216 702 890
internal_count=3049 2003 1046 1009 918 236 810 177 994 216 702 890
cat_boundaries=0 1
cat_threshold=4
is_linear=0
shrinkage=0.185339


Tree=58
num_leaves=12
num_cat=2
split_feature=0 11 5 11 5 0 3 1 4 4 3
split_gain=741.439 209.346 55.8218 14.5504 24.144 13.353 12.9015 11.2402 7.04345 4.56032 1.48782
threshold=0.11768742165819455 0 1.0000000180025095e-35 1 1.0000000180025095e-35 -0.01369412424947262 0.64587929263921862 0.54912157247514737 7.9696736335754403 -585.18018269538868 1.1680160011004375
decision_type=2 9 2 9 2 2 2 2 2 2 2
left_child=2 8 5 4 9 -1 -4 -7 10 -3 -2
right_child=1 3 6 -5 -6 7 -8 -9 -10 -11 -12
leaf_value=-0.15842368001978324 0.15730627744613995 0.047346487115115667 -0.067496892494073174 -0.04956378643400134 0.095812980236593723 -0.020349709941742733 0.015260982498334874 -0.13144917339594275 0.064866779700523847 0 0.11690388648176568
leaf_weight=633 482 81 154 102 123 86 82 91 104 703 408
leaf_count=633 482 81 154 102 123 86 82 91 104 703 408
internal_value=0.00595952 0.0722983 -0.120036 0.0108707 0.0192923 -0.143549 -0.0346973 -0.0837518 0.132091 0.00608048 0.140171
internal_weight=3049 2003 1046 1009 907 810 236 177 994 784 890
internal_count=3049 2003 1046 1009 907 810 236 177 994 784 890
cat_boundaries=0 1 2
cat_threshold=4 138
is_linear=0
shrinkage=0.185339


Tree=59
num_leaves=14
num_cat=1
split_feature=0 11 5 0 0 2 1 2 4 4 4 3 2
split_gain=729.695 207.58 56.2103 14.6571 14.2086 12.7961 10.6567 9.09062 7.98843 7.19849 2.37668 2.09755 1.52897
threshold=0.11768742165819455 0 1.0000000180025095e-35 0.84595503494761737 -0.01369412424947262 -0.74563034512701953 0.54912157247514737 -0.30285094157652998 -572.89341831207264 7.9696736335754403 -585.18018269538868 1.1680160011004375 -0.85548968466002684
decision_type=2 9 2 2 2 2 2 2 2 2 2 2 2
left_child=2 9 4 7 -1 -4 -6 12 10 11 -5 -2 -3
right_child=1 3 5 8 6 -7 -8 -9 -10 -11 -12 -13 -14
leaf_value=-0.15800741954971334 0.15677513818002109 -0.016569135736123765 0 0.047790822036228607 -0.019877407622045824 -0.092560411051786654 -0.12856263342881391 -0.069211972293291929 0.078669509094464463 0.063670102781649404 0.0088532792837920839 0.11535581236390102 0.018223444824340292
leaf_weight=633 482 82 155 82 86 81 91 98 90 104 570 408 87
leaf_count=633 482 82 155 82 86 81 91 98 90 104 570 408 87
internal_value=0.00572862 0.071543 -0.119263 0.0103846 -0.142842 -0.0337043 -0.0820214 -0.0248488 0.0245594 0.131079 0.0153804 0.139171 0
internal_weight=3049 2003 1046 1009 810 236 177 267 742 994 652 890 169
internal_count=3049 2003 1046 1009 810 236 177 267 742 994 652 890 169
cat_boundaries=0 1
cat_threshold=4
is_linear=0
shrinkage=0.185339


Tree=60
num_leaves=14
num_cat=1
split_feature=0 11 5 0 0 3 1 2 4 4 3 4 2
split_gain=719.608 204.906 56.072 15.0825 14.1306 12.3853 10.0782 8.63654 7.7579 7.359 2.6486 2.27323 1.32307
threshold=0.11768742165819455 0 1.0000000180025095e-35 -0.01369412424947262 0.84595503494761737 0.64587929263921862 0.54912157247514737 -0.30285094157652998 -572.89341831207264 7.9696736335754403 1.1680160011004375 -585.18018269538868 -0.85548968466002684
decision_type=2 9 2 2 2 2 2 2 2 2 2 2 2
left_child=2 9 3 -1 7 -4 -5 12 11 10 -2 -6 -3
right_child=1 4 5 6 8 -7 -8 -9 -10 -11 -12 -13 -14
leaf_value=-0.15758933344010922 0.1561619469826836 -0.015580186606714825 -0.065381151165449777 -0.019416066346463891 0.046734357643058257 0.015708615427932959 -0.12564980886018953 -0.067670199317444904 0.077399441876599209 0.062443677130983109 0.11385981155577996 0.0085659591069438528 0.016807333938044601
leaf_weight=633 482 82 154 86 82 82 91 98 90 104 408 570 87
leaf_count=633 482 82 154 86 82 82 91 98 90 104 408 570 87
internal_value=0.00553502 0.0708955 -0.118588 -0.142132 0.0101314 -0.0331532 -0.0802827 -0.0244358 0.0240626 0.130045 0.138151 0.0149937 0
internal_weight=3049 2003 1046 810 1009 236 177 267 742 994 890 652 169
internal_count=3049 2003 1046 810 1009 236 177 267 742 994 890 652 169
cat_boundaries=0 1
cat_threshold=4
is_linear=0
shrinkage=0.185339


Tree=61
num_leaves=14
num_cat=1
split_feature=0 11 5 0 5 0 2 1 4 3 3 5 3
split_gain=708.863 202.171 56.4094 16.0322 14.1807 16.0764 12.7395 9.47145 7.57211 5.85237 3.15813 11.0358 1.93848
threshold=0.11768742165819455 0 1.0000000180025095e-35 -0.01369412424947262 1.5000000000000002 0.83004717628485769 -0.74563034512701953 0.54912157247514737 7.9696736335754403 1.0448069762459193 1.1680160011004375 1.0000000180025095e-35 2.4961805794672931
decision_type=2 9 2 2 2 2 2 2 2 2 2 2 2
left_child=2 8 3 -1 5 9 -4 -5 10 -3 -2 -12 -7
right_child=1 4 6 7 -6 12 -8 -9 -10 -11 11 -13 -14
leaf_value=-0.15718402394472444 0.15551119063180191 0 0 -0.018965433081726418 0.079357897567054511 0.0050274500442968701 -0.09087342996006427 -0.12256713319116808 0.061097884250411731 -0.067069048594858169 0.072167641423074025 0.14988936953621296 0.028790761452829317
leaf_weight=633 482 82 155 86 91 421 81 91 104 125 212 196 290
leaf_count=633 482 82 155 86 91 421 81 91 104 125 212 196 290
internal_value=0.00537723 0.0702506 -0.117813 -0.141414 0.00989167 0.00189522 -0.0321927 -0.078461 0.129003 -0.0420647 0.137136 0.112418 0.0161536
internal_weight=3049 2003 1046 810 1009 918 236 177 994 207 890 408 711
internal_count=3049 2003 1046 810 1009 918 236 177 994 207 890 408 711
cat_boundaries=0 1
cat_threshold=4
is_linear=0
shrinkage=0.185339


Tree=62
num_leaves=13
num_cat=2
split_feature=0 11 5 0 11 5 2 1 4 4 3 5
split_gain=699.243 199.331 56.2522 17.0527 13.5549 23.3032 12.2897 8.84141 7.78165 4.07788 3.44109 11.4123
threshold=0.11768742165819455 0 1.0000000180025095e-35 -0.01369412424947262 1 1.0000000180025095e-35 -0.74563034512701953 0.54912157247514737 7.9696736335754403 -585.18018269538868 1.1680160011004375 1.0000000180025095e-35
decision_type=2 9 2 2 9 2 2 2 2 2 2 2
left_child=2 8 3 -1 5 9 -4 -5 10 -3 -2 -12
right_child=1 4 6 7 -6 -7 -8 -9 -10 -11 11 -13
leaf_value=-0.15678040653796163 0.15471601678372063 0.043807893465992356 0 -0.018525258410222172 -0.048584964284733523 0.092979810813263924 -0.089270156594143821 -0.11932012593536052 0.059797955633215091 0 0.070692942567683978 0.14904686342658713
leaf_weight=633 482 81 155 86 102 123 81 91 104 703 212 196
leaf_count=633 482 81 155 86 102 123 81 91 104 703 212 196
internal_value=0.00523239 0.0696665 -0.117117 -0.14068 0.0097284 0.0179019 -0.0316342 -0.0765592 0.128005 0.00490482 0.136164 0.111242
internal_weight=3049 2003 1046 810 1009 907 236 177 994 784 890 408
internal_count=3049 2003 1046 810 1009 907 236 177 994 784 890 408
cat_boundaries=0 1 2
cat_threshold=4 138
is_linear=0
shrinkage=0.185339


Tree=63
num_leaves=15
num_cat=1
split_feature=0 11 5 0 0 3 2 1 4 4 3 5 6 2
split_gain=688.521 197.264 56.0981 18.1471 13.8465 12.1301 8.23311 8.20017 7.93861 7.4318 3.69232 11.7592 2.41159 1.20488
threshold=0.11768742165819455 0 1.0000000180025095e-35 -0.01369412424947262 0.83004717628485769 0.64587929263921862 -0.29533377372823238 0.54912157247514737 7.9696736335754403 -569.63279628753651 1.1680160011004375 1.0000000180025095e-35 1.0000000180025095e-35 -0.85548968466002684
decision_type=2 9 2 2 2 2 2 2 2 2 2 2 2 2
left_child=2 8 3 -1 6 -4 13 -5 10 12 -2 -12 -6 -3
right_child=1 4 5 7 9 -7 -8 -9 -10 -11 11 -13 -14 -15
leaf_value=-0.15639995049799416 0.1538227133169488 -0.017615803027881322 -0.063125346463670504 -0.018095299705491341 0 0.017403458955501928 -0.071206009809858709 -0.1159454089126561 0.058565472574212872 0.075686745167873951 0.069222447290512551 0.14813681288802139 0.020810712202291116 0.013080289033203504
leaf_weight=633 482 82 154 86 167 82 88 91 104 88 212 196 496 88
leaf_count=633 482 82 154 86 167 82 88 91 104 88 212 196 496 88
internal_value=0.00498087 0.0689221 -0.116425 -0.13995 0.00930211 -0.0310777 -0.0257812 -0.0745961 0.126954 0.0228226 0.135125 0.110035 0.0141315 0
internal_weight=3049 2003 1046 810 1009 236 258 177 994 751 890 408 663 170
internal_count=3049 2003 1046 810 1009 236 258 177 994 751 890 408 663 170
cat_boundaries=0 1
cat_threshold=4
is_linear=0
shrinkage=0.185339


Tree=64
num_leaves=15
num_cat=1
split_feature=0 11 5 0 5 0 2 5 3 1 3 3 3 2
split_gain=677.283 194.655 56.1159 19.1885 13.6036 15.2835 12.1483 8.5365 16.605 7.59163 5.31388 2.26487 1.78767 1.15669
threshold=0.11768742165819455 0 1.0000000180025095e-35 -0.01369412424947262 1.5000000000000002 0.83004717628485769 -0.74563034512701953 1.0000000180025095e-35 1.5122170668214918 0.54912157247514737 1.0448069762459193 2.8170249704508268 2.4961805794672931 0.088417631383921183
decision_type=2 9 2 2 2 2 2 2 2 2 2 2 2 2
left_child=2 7 3 -1 5 10 -4 8 13 -5 -3 -10 -7 -2
right_child=1 4 6 9 -6 12 -8 -9 11 -11 -12 -13 -14 -15
leaf_value=-0.15594210356417387 0.14432659941455928 0 0 -0.017675320534855692 0.076891197664852834 0.0043077551207176632 -0.087623534076172072 0.15472790678490334 0.016470119118295198 -0.11263146702354832 -0.065674750659931613 0.075826944166934404 0.027150872080473412 0.073766094602070342
leaf_weight=633 292 82 155 86 91 421 81 405 91 91 125 123 290 83
leaf_count=633 292 82 155 86 91 421 81 405 91 91 125 123 290 83
internal_value=0.00476063 0.068181 -0.115649 -0.139167 0.00895858 0.00110865 -0.0303265 0.125825 0.10599 -0.0726695 -0.0417804 0.0555143 0.0150554 0.131765
internal_weight=3049 2003 1046 810 1009 918 236 994 589 177 207 214 711 375
internal_count=3049 2003 1046 810 1009 918 236 994 589 177 207 214 711 375
cat_boundaries=0 1
cat_threshold=4
is_linear=0
shrinkage=0.185339


Tree=65
num_leaves=15
num_cat=1
split_feature=0 11 5 0 0 3 5 3 2 4 1 0 4 2
split_gain=666.749 191.459 55.8842 20.3648 12.9885 11.6831 9.20431 17.2126 8.24558 7.57132 6.91434 2.29703 2.16016 1.14914
threshold=0.11768742165819455 0 1.0000000180025095e-35 -0.01369412424947262 0.84595503494761737 0.64587929263921862 1.0000000180025095e-35 0.84612501113474148 -0.29533377372823238 -572.89341831207264 0.54912157247514737 0.91315403569220399 -585.18018269538868 -0.85548968466002684
decision_type=2 9 2 2 2 2 2 2 2 2 2 2 2 2
left_child=2 6 3 -1 8 -4 7 -2 13 12 -5 -9 -6 -3
right_child=1 4 5 10 9 -7 -8 11 -10 -11 -12 -13 -14 -15
leaf_value=-0.1554438582244074 0.14598591800046179 -0.015431300425764604 -0.061256735886750006 -0.017274822222166288 0.043848993633013096 0.017796220432165142 0.15411852464809347 0.047303827893020942 -0.067245134123168765 0.074655254628226059 -0.10890858911987686 0.099659588977229319 0.0070224264471088578 0.014654638505975003
leaf_weight=633 248 82 154 86 82 82 405 209 96 90 91 132 570 89
leaf_count=633 248 82 154 86 82 82 405 209 96 90 91 132 570 89
internal_value=0.00462247 0.0675505 -0.114844 -0.138308 0.00880984 -0.0297149 0.124719 0.104527 -0.0243336 0.022212 -0.0705401 0.0708754 0.0132737 0
internal_weight=3049 2003 1046 810 1009 236 994 589 267 742 177 341 652 171
internal_count=3049 2003 1046 810 1009 236 994 589 267 742 177 341 652 171
cat_boundaries=0 1
cat_threshold=4
is_linear=0
shrinkage=0.185339


Tree=66
num_leaves=14
num_cat=1
split_feature=0 11 5 0 5 0 2 5 3 1 3 0 2
split_gain=655.557 188.159 55.7043 21.6804 13.063 14.1914 11.894 9.91486 17.6627 6.17091 4.74779 2.09715 1.78434
threshold=0.11768742165819455 0 1.0000000180025095e-35 -0.01369412424947262 1.5000000000000002 0.83004717628485769 -0.74563034512701953 1.0000000180025095e-35 0.84612501113474148 0.54912157247514737 1.0448069762459193 0.91315403569220399 0.30619825414462404
decision_type=2 9 2 2 2 2 2 2 2 2 2 2 2
left_child=2 7 3 -1 5 10 -4 8 -2 -5 -3 -10 -7
right_child=1 4 6 9 -6 12 -8 -9 11 -11 -12 -13 -14
leaf_value=-0.15489928371445882 0.14479465615465481 0 0 -0.016910334288438331 0.075223633175112145 0.032019560523088839 -0.085695199369819675 0.1535028164377919 0.046066910095979775 -0.10475579889579911 -0.06296623479283997 0.097156494047614297 0.0064831557274779078
leaf_weight=633 248 82 155 86 91 181 81 405 209 91 125 132 530
leaf_count=633 248 82 155 86 91 181 81 405 209 91 125 132 530
internal_value=0.00450744 0.0669079 -0.11395 -0.137368 0.00866846 0.000954985 -0.0289832 0.123582 0.103015 -0.0682053 -0.0403372 0.0691375 0.0144343
internal_weight=3049 2003 1046 810 1009 918 236 994 589 177 207 341 711
internal_count=3049 2003 1046 810 1009 918 236 994 589 177 207 341 711
cat_boundaries=0 1
cat_threshold=4
is_linear=0
shrinkage=0.185339


Tree=67
num_leaves=13
num_cat=2
split_feature=0 11 5 0 11 5 0 5 3 4 4 0
split_gain=644.382 185.304 55.2977 23.1566 12.6834 22.7789 11.6697 10.6346 18.131 5.79237 3.87648 1.89804
threshold=0.11768742165819455 0 1.0000000180025095e-35 -0.01369412424947262 1 1.0000000180025095e-35 -0.13519913955769389 1.0000000180025095e-35 0.84612501113474148 4.8681724071502694 -585.18018269538868 0.91315403569220399
decision_type=2 9 2 2 9 2 2 2 2 2 2 2
left_child=2 7 3 -1 5 10 -4 8 -2 -5 -3 -10
right_child=1 4 6 9 -6 -7 -8 -9 11 -11 -12 -13
leaf_value=-0.1543278249211481 0.14369430085972115 0.041576499084200642 -0.070093308183469663 -0.015125785448170491 -0.047943444720530325 0.09053395263266846 0.0055304176160335455 0.15296398897563254 0.044892555133348923 -0.10062635425275417 0 0.09470420725763426
leaf_weight=633 248 81 118 85 102 123 118 405 209 92 703 132
leaf_count=633 248 81 118 85 102 123 118 405 209 92 703 132
internal_value=0.00440734 0.0662766 -0.113033 -0.136361 0.00847665 0.0164317 -0.0283822 0.122518 0.101575 -0.0656632 0.00357437 0.0674579
internal_weight=3049 2003 1046 810 1009 907 236 994 589 177 784 341
internal_count=3049 2003 1046 810 1009 907 236 994 589 177 784 341
cat_boundaries=0 1 2
cat_threshold=4 138
is_linear=0
shrinkage=0.185339


Tree=68
num_leaves=15
num_cat=1
split_feature=0 11 5 0 0 3 5 3 2 4 4 4 0 2
split_gain=631.887 183.216 55.2351 24.7349 12.8191 11.5866 11.4127 18.5676 7.6279 7.57771 5.01472 2.09713 1.7081 1.1519
threshold=0.11768742165819455 0 1.0000000180025095e-35 -0.01369412424947262 0.84595503494761737 0.64587929263921862 1.0000000180025095e-35 0.84612501113474148 -0.29533377372823238 -572.89341831207264 4.8681724071502694 -585.18018269538868 0.91315403569220399 -0.85548968466002684
decision_type=2 9 2 2 2 2 2 2 2 2 2 2 2 2
left_child=2 6 3 -1 8 -4 7 -2 13 11 -5 -6 -9 -3
right_child=1 4 5 10 9 -7 -8 12 -10 -11 -12 -13 -14 -15
leaf_value=-0.15376980671590532 0.14252173868550416 -0.016878100292207404 -0.059073857717863359 -0.014770683638337979 0.042426780405730224 0.020074790918001999 0.1524487546888528 0.043702121969367791 -0.066217597592462929 0.073701078882988172 -0.095954307548685502 0.0063103781248782034 0.092238965771642617 0.01313998254455152
leaf_weight=633 248 82 154 85 82 82 405 209 96 90 92 570 132 89
leaf_count=633 248 82 154 85 82 82 405 209 96 90 92 570 132 89
internal_value=0.00425065 0.0655205 -0.112043 -0.135347 0.0080532 -0.0274814 0.121441 0.100096 -0.0249227 0.0213864 -0.0630392 0.0124686 0.0657634 0
internal_weight=3049 2003 1046 810 1009 236 994 589 267 742 177 652 341 171
internal_count=3049 2003 1046 810 1009 236 994 589 267 742 177 652 341 171
cat_boundaries=0 1
cat_threshold=4
is_linear=0
shrinkage=0.185339


Tree=69
num_leaves=15
num_cat=1
split_feature=0 11 5 0 0 5 3 2 2 4 1 6 0 2
split_gain=619.904 179.964 54.4392 26.3469 12.5487 12.1181 18.933 11.675 7.65849 7.31957 4.43379 2.23719 1.5209 0.896218
threshold=0.11768742165819455 0 1.0000000180025095e-35 -0.01369412424947262 0.83004717628485769 1.0000000180025095e-35 0.84612501113474148 -0.74563034512701953 -0.29533377372823238 -569.63279628753651 0.54912157247514737 1.0000000180025095e-35 0.91315403569220399 -0.85548968466002684
decision_type=2 9 2 2 2 2 2 2 2 2 2 2 2 2
left_child=2 5 3 -1 8 6 -2 -4 13 11 -5 -6 -8 -3
right_child=1 4 7 10 9 -7 12 -9 -10 -11 -12 -13 -14 -15
leaf_value=-0.15299165545210469 0.14127978736571337 -0.015833399773879899 0 -0.014314722630749706 -0.0013895912324904151 0.1518100305202244 0.042558526685492239 -0.083277250793771795 -0.069313385441844524 0.073000237075840066 -0.091823579514837175 0.018827271978773756 0.089812098915851679 0.010426598532257473
leaf_weight=633 248 82 155 86 167 405 209 81 88 88 91 496 132 88
leaf_count=633 248 82 155 86 167 405 209 81 88 88 91 496 132 88
internal_value=0.00420037 0.0648895 -0.110982 -0.134117 0.0079268 0.120311 0.0986134 -0.0270064 -0.0254692 0.0208501 -0.060217 0.0122609 0.0641127 0
internal_weight=3049 2003 1046 810 1009 994 589 236 258 751 177 663 341 170
internal_count=3049 2003 1046 810 1009 994 589 236 258 751 177 663 341 170
cat_boundaries=0 1
cat_threshold=4
is_linear=0
shrinkage=0.185339


Tree=70
num_leaves=14
num_cat=1
split_feature=0 11 5 0 5 3 5 0 0 0 4 3 0
split_gain=606.393 177.331 53.5688 27.9401 12.8377 19.1904 12.6528 13.4896 11.2501 4.34884 3.75845 1.73009 1.33382
threshold=0.11768742165819455 0 1.0000000180025095e-35 -0.01369412424947262 1.0000000180025095e-35 0.84612501113474148 1.5000000000000002 0.83004717628485769 -0.18618824227249645 0.22245248196111148 4.8681724071502694 1.0980507425198931 0.91315403569220399
decision_type=2 9 2 2 2 2 2 2 2 2 2 2 2
left_child=2 4 3 -1 5 -2 7 9 -4 -3 -5 -9 -7
right_child=1 6 8 10 -6 12 -8 11 -10 -11 -12 -13 -14
leaf_value=-0.15202769870184024 0.13994263219309774 0 -0.0711561070571749 -0.013232982317118669 0.1511790902736995 0.04149165634505067 0.072990840861464346 0 0.0035809061370302509 -0.065486562837290138 -0.086425511029661159 0.020134413469923538 0.087449084602780863
leaf_weight=633 248 95 107 85 405 209 91 259 129 112 92 452 132
leaf_count=633 248 95 107 85 405 209 91 259 129 112 92 452 132
internal_value=0.00414539 0.0641729 -0.109771 -0.132719 0.119186 0.0971319 0.00762843 2.61091e-05 -0.0264435 -0.0402789 -0.0572926 0.0132186 0.0625341
internal_weight=3049 2003 1046 810 994 589 1009 918 236 207 177 711 341
internal_count=3049 2003 1046 810 994 589 1009 918 236 207 177 711 341
cat_boundaries=0 1
cat_threshold=4
is_linear=0
shrinkage=0.185339


Tree=71
num_leaves=13
num_cat=2
split_feature=0 11 5 0 4 11 5 3 3 5 4 1
split_gain=592.271 174.011 52.939 29.612 13.9253 12.0789 21.9673 11.5813 6.27567 13.4504 3.67668 3.22137
threshold=0.11768742165819455 0 1.0000000180025095e-35 -0.01369412424947262 7.3306932449340829 1 1.0000000180025095e-35 0.64587929263921862 1.1680160011004375 1.0000000180025095e-35 -585.18018269538868 0.54912157247514737
decision_type=2 9 2 2 2 9 2 2 2 2 2 2
left_child=2 4 3 -1 8 6 10 -4 -2 -10 -3 -5
right_child=1 5 7 11 -6 -7 -8 -9 9 -11 -12 -13
leaf_value=-0.151006869480069 0.14822422295295215 0.0398430491767926 -0.057352393299849508 -0.012645025297783514 0.042139764658446981 -0.047648527178975865 0.087927005398617988 0.022177830894464443 0.0587805969965269 0.13999194684861943 -0.00038321573308323144 -0.081922772382498482
leaf_weight=633 475 81 154 86 112 102 123 82 211 196 703 91
leaf_count=633 475 81 154 86 112 102 123 82 211 196 703 91
internal_value=0.00413212 0.0634601 -0.108446 -0.131252 0.117955 0.00744116 0.0152447 -0.0256121 0.127693 0.100758 0.00260065 -0.0542571
internal_weight=3049 2003 1046 810 994 1009 907 236 882 407 784 177
internal_count=3049 2003 1046 810 994 1009 907 236 882 407 784 177
cat_boundaries=0 1 2
cat_threshold=4 138
is_linear=0
shrinkage=0.185339


Tree=72
num_leaves=16
num_cat=1
split_feature=0 11 0 5 5 3 0 0 4 2 1 4 0 2 5
split_gain=577.805 170.692 54.1373 34.6675 14.4297 19.6502 12.4547 11.1408 7.5739 7.08246 2.55451 2.08202 1.43147 0.866584 0.39887
threshold=0.11768742165819455 0 -0.20617234533192852 1.0000000180025095e-35 1.0000000180025095e-35 0.84612501113474148 0.84595503494761737 -0.01369412424947262 -572.89341831207264 -0.29533377372823238 0.54912157247514737 -585.18018269538868 0.91315403569220399 -0.85548968466002684 1.5000000000000002
decision_type=2 9 2 2 2 2 2 2 2 2 2 2 2 2 2
left_child=2 4 -1 7 5 -2 9 -4 11 13 -9 -8 -7 -3 -5
right_child=1 6 3 14 -6 12 8 10 -10 -11 -12 -13 -14 -15 -16
leaf_value=-0.15215494557595413 0.13670297061877348 -0.015948935167189971 -0.13127031978018827 -0.0023646170348878694 0.14954583473632968 0.038156528068084443 0.040828906924601178 -0.012298182542928493 0.072309859030803378 -0.065382971524362399 -0.076769950346215393 0.0052470078125685547 0.08351385582625602 0.0096396413057296369 0.012320638210626242
leaf_weight=507 248 82 186 91 405 209 82 86 90 96 91 570 132 89 85
leaf_count=507 248 82 186 91 405 209 82 86 90 96 91 570 132 89 85
internal_value=0.00392444 0.0625277 -0.107267 -0.0628446 0.116498 0.0936805 0.00704597 -0.0954918 0.0202171 -0.0255119 -0.0514118 0.0113337 0.0589468 0 0
internal_weight=3049 2003 1046 539 994 589 1009 363 742 267 177 652 341 171 176
internal_count=3049 2003 1046 539 994 589 1009 363 742 267 177 652 341 171 176
cat_boundaries=0 1
cat_threshold=4
is_linear=0
shrinkage=0.185339


Tree=73
num_leaves=16
num_cat=1
split_feature=0 11 0 5 5 3 0 0 4 2 6 1 0 2 5
split_gain=565.182 166.301 56.1218 32.634 15.0417 19.5794 12.0869 11.3017 7.2402 7.02592 2.11731 1.97753 1.20412 0.678605 0.364526
threshold=0.11768742165819455 0 -0.20617234533192852 1.0000000180025095e-35 1.0000000180025095e-35 0.84612501113474148 0.83004717628485769 -0.01369412424947262 -569.63279628753651 -0.29533377372823238 1.0000000180025095e-35 0.54912157247514737 0.91315403569220399 -0.85548968466002684 1.5000000000000002
decision_type=2 9 2 2 2 2 2 2 2 2 2 2 2 2 2
left_child=2 4 -1 7 5 -2 9 -4 10 13 -8 -9 -7 -3 -5
right_child=1 6 3 14 -6 12 8 11 -10 -11 -12 -13 -14 -15 -16
leaf_value=-0.151767101418357 0.13481067279127865 -0.014929072371664742 -0.1285054710834676 -0.0023079711093829305 0.14846001612452947 0.037160691159898576 -0.0021665834190773697 -0.011960853506365337 0.071389263574027029 -0.067936792928289289 0.017646785001554175 -0.071871813283149844 0.080969609637242299 0.0071743626863862613 0.011768440658965736
leaf_weight=507 248 82 186 91 405 209 167 86 88 88 496 91 132 88 85
leaf_count=507 248 82 186 91 405 209 167 86 88 88 496 91 132 88 85
internal_value=0.00380521 0.0617685 -0.106161 -0.0610677 0.115042 0.0919486 0.00699002 -0.0927407 0.0197029 -0.0258259 0.0111796 -0.0487033 0.0573412 0 0
internal_weight=3049 2003 1046 539 994 589 1009 363 751 258 663 177 341 170 176
internal_count=3049 2003 1046 539 994 589 1009 363 751 258 663 177 341 170 176
cat_boundaries=0 1
cat_threshold=4
is_linear=0
shrinkage=0.185339


Tree=74
num_leaves=15
num_cat=1
split_feature=0 11 0 5 4 5 0 0 3 5 2 2 1 5
split_gain=551.958 162.587 58.0742 30.6636 16.054 12.2665 12.733 11.23 5.95409 13.6305 4.26777 1.72125 1.50988 0.333163
threshold=0.11768742165819455 0 -0.20617234533192852 1.0000000180025095e-35 7.3306932449340829 1.5000000000000002 0.83004717628485769 -0.01369412424947262 1.1680160011004375 1.0000000180025095e-35 -0.56467531952237005 0.30619825414462404 0.54912157247514737 1.5000000000000002
decision_type=2 9 2 2 2 2 2 2 2 2 2 2 2 2
left_child=2 4 -1 7 8 6 10 -4 -2 -10 -3 -8 -9 -5
right_child=1 5 3 13 -6 -7 11 12 9 -11 -12 -13 -14 -15
leaf_value=-0.15132486656863373 0.14378761263858686 -0.0062795614685870046 -0.12546536840355291 -0.0022526820890192835 0.034605294370073626 0.071034384884307369 0.028965666623845737 -0.011639156311037662 0.055414216568590927 0.13651708725661427 -0.071884023648941503 0.0044323708677997961 -0.067484062787023125 0.011240991765631408
leaf_weight=507 475 117 186 91 112 91 181 86 211 196 90 530 91 85
leaf_count=507 475 117 186 91 112 91 181 86 211 196 90 530 91 85
internal_value=0.00364428 0.0609295 -0.105025 -0.0592815 0.113603 0.00675929 0 -0.0899814 0.123711 0.0973238 -0.0399108 0.0121209 -0.0462675 0
internal_weight=3049 2003 1046 539 994 1009 918 363 882 407 207 711 177 176
internal_count=3049 2003 1046 539 994 1009 918 363 882 407 207 711 177 176
cat_boundaries=0 1
cat_threshold=4
is_linear=0
shrinkage=0.185339


Tree=75
num_leaves=15
num_cat=1
split_feature=0 11 0 5 5 3 5 0 0 2 3 4 1 5
split_gain=538.926 158.638 60.0385 28.8018 16.3548 19.6148 11.6098 12.1045 10.9916 4.10395 1.62561 1.42089 0.781626 0.304521
threshold=0.11768742165819455 0 -0.20617234533192852 1.0000000180025095e-35 1.0000000180025095e-35 0.84612501113474148 1.5000000000000002 0.83004717628485769 -0.0068026013508286779 -0.56467531952237005 2.4961805794672931 4.9219307899475107 0.54912157247514737 1.5000000000000002
decision_type=2 9 2 2 2 2 2 2 2 2 2 2 2 2
left_child=2 4 -1 8 5 -2 7 9 -4 -3 -9 -7 -10 -5
right_child=1 6 3 13 -6 11 -8 10 12 -11 -12 -13 -14 -15
leaf_value=-0.15091341838321248 0.13110561526199585 -0.0058192759361313509 -0.12147444663228187 -0.0021987176496660174 0.14630073253670037 0.06638636662609676 0.069072833476246001 0.0016987267473251217 -0.011608774454516401 -0.070288308731138782 0.022943757510394801 0.021541190951398531 -0.061335846392123562 0.010737183243140771
leaf_weight=507 248 117 190 91 405 223 91 421 84 90 290 118 89 85
leaf_count=507 248 117 190 91 405 223 91 421 84 90 290 118 89 85
internal_value=0.00345149 0.0600607 -0.103923 -0.0575354 0.11209 0.0884115 0.00654372 0 -0.0872868 -0.0389472 0.0117853 0.0539455 -0.0432116 0
internal_weight=3049 2003 1046 539 994 589 1009 918 363 207 711 341 173 176
internal_count=3049 2003 1046 539 994 589 1009 918 363 207 711 341 173 176
cat_boundaries=0 1
cat_threshold=4
is_linear=0
shrinkage=0.185339


Tree=76
num_leaves=16
num_cat=1
split_feature=0 11 0 5 5 3 0 0 4 2 4 0 2 1 5
split_gain=526.591 154.669 61.9891 27.0653 16.9398 19.2836 11.3339 10.6517 7.56122 7.41064 2.16994 1.55507 0.806588 0.512032 0.278362
threshold=0.11768742165819455 0 -0.20617234533192852 1.0000000180025095e-35 1.0000000180025095e-35 0.84612501113474148 0.84595503494761737 -0.0068026013508286779 -572.89341831207264 -0.29533377372823238 -585.18018269538868 0.91315403569220399 -0.85548968466002684 0.54912157247514737 1.5000000000000002
decision_type=2 9 2 2 2 2 2 2 2 2 2 2 2 2 2
left_child=2 4 -1 7 5 -2 9 -4 10 12 -8 -7 -3 -9 -5
right_child=1 6 3 14 -6 11 8 13 -10 -11 -12 -13 -14 -15 -16
leaf_value=-0.15054027744896206 0.12896594120343399 -0.014363272390817625 -0.1183024783685724 -0.0021460459412893916 0.1451446692401003 0.032258545174453333 0.039734001463819085 -0.011308000936792314 0.070806528389558185 -0.065351375657586502 0.0040350189955905228 0.076286248482637167 0.010704992065596417 -0.057898054747925365 0.010255954444249184
leaf_weight=507 248 82 190 91 405 209 82 84 90 96 570 132 89 89 85
leaf_count=507 248 82 190 91 405 209 82 84 90 96 570 132 89 89 85
internal_value=0.00326172 0.0592234 -0.102874 -0.0558533 0.110598 0.0866669 0.00636994 -0.0846922 0.0189763 -0.0246459 0.0101333 0.0524981 0 -0.0412778 0
internal_weight=3049 2003 1046 539 994 589 1009 363 742 267 652 341 171 173 176
internal_count=3049 2003 1046 539 994 589 1009 363 742 267 652 341 171 173 176
cat_boundaries=0 1
cat_threshold=4
is_linear=0
shrinkage=0.185339


Tree=77
num_leaves=16
num_cat=1
split_feature=0 11 0 5 5 3 5 0 0 0 2 4 4 5 3
split_gain=514.847 150.102 63.9817 25.4189 17.4465 18.9019 11.2173 11.4308 10.3386 4.15683 1.66494 1.58575 0.613469 0.254471 0.201954
threshold=0.11768742165819455 0 -0.20617234533192852 1.0000000180025095e-35 1.0000000180025095e-35 0.84612501113474148 1.5000000000000002 0.83004717628485769 -0.0068026013508286779 0.22245248196111148 0.30619825414462404 4.9219307899475107 4.8681724071502694 1.5000000000000002 0.62898290964108405
decision_type=2 9 2 2 2 2 2 2 2 2 2 2 2 2 2
left_child=2 4 -1 8 5 -2 7 9 14 -3 -9 -7 -10 -5 -4
right_child=1 6 3 13 -6 11 -8 10 12 -11 -12 -13 -14 -15 -16
leaf_value=-0.15021128244635035 0.12674291068828064 0 -0.067349380482182267 -0.0020946359226096589 0.14384979308177259 0.06348398464863067 0.067791750801184741 0.027813172572325847 -0.009482421348309308 -0.062415730162232154 0.0038052997432779147 0.018719578801965113 -0.05594324167426893 0.0097962930934087835 -0.14016093472785965
leaf_weight=507 248 95 81 91 405 223 91 181 84 112 530 118 89 85 109
leaf_count=507 248 95 81 91 405 223 91 181 84 112 530 118 89 85 109
internal_value=0.00308014 0.0584183 -0.101862 -0.0542028 0.10903 0.0848899 0.00633331 0 -0.082149 -0.0379456 0.0113574 0.0510558 -0.0393659 0 -0.115209
internal_weight=3049 2003 1046 539 994 589 1009 918 363 207 711 341 173 176 190
internal_count=3049 2003 1046 539 994 589 1009 918 363 207 711 341 173 176 190
cat_boundaries=0 1
cat_threshold=4
is_linear=0
shrinkage=0.185339


Tree=78
num_leaves=15
num_cat=2
split_feature=0 11 0 5 5 3 11 5 0 4 0 3 6 5
split_gain=504.043 145.798 65.5548 24.108 17.665 18.6484 11.2539 21.0116 10.4365 3.40971 1.64815 0.890117 0.693547 0.23265
threshold=0.11768742165819455 0 -0.20617234533192852 1.0000000180025095e-35 1.0000000180025095e-35 0.84612501113474148 1 1.0000000180025095e-35 -0.0068026013508286779 -585.18018269538868 0.91315403569220399 0.62898290964108405 0.28125000000000006 1.5000000000000002
decision_type=2 9 2 2 2 2 9 2 2 2 2 2 2 2
left_child=2 4 -1 8 5 -2 7 9 11 -3 -7 -4 -10 -5
right_child=1 6 3 13 -6 10 -8 -9 12 -11 -12 -13 -14 -15
leaf_value=-0.14991313006222182 0.12476197193373711 0.037615626302653679 -0.06375543941260553 -0.0020444575042598196 0.14232496990351801 0.029581661424483274 -0.046994861475934284 0.084768381901323617 -0.053792992163287916 -0.0014472710417510336 0.073200722868799445 -0.13922347316574019 -0.0076836113346394029 0.0093572344917044279
leaf_weight=507 248 81 81 91 405 209 102 123 89 703 132 109 84 85
leaf_count=507 248 81 81 91 405 209 102 123 89 703 132 109 84 85
internal_value=0.00280086 0.0575596 -0.101032 -0.0528754 0.107442 0.083235 0.00621235 0.0137985 -0.0800896 0.00141146 0.0496473 -0.113115 -0.0373655 0
internal_weight=3049 2003 1046 539 994 589 1009 907 363 784 341 190 173 176
internal_count=3049 2003 1046 539 994 589 1009 907 363 784 341 190 173 176
cat_boundaries=0 1 2
cat_threshold=4 138
is_linear=0
shrinkage=0.185339


Tree=79
num_leaves=17
num_cat=1
split_feature=0 11 0 5 4 0 0 2 0 4 2 4 3 2 6 5
split_gain=492.857 141.545 66.7946 23.0413 18.2985 11.1983 10.2999 9.46115 12.2204 7.5988 6.90456 2.1101 1.53366 0.665249 0.562193 0.212149
threshold=0.11768742165819455 0 -0.20617234533192852 1.0000000180025095e-35 7.3306932449340829 0.84595503494761737 -0.0068026013508286779 -0.047274813327404006 0.7358882750538982 -572.89341831207264 -0.29533377372823238 -585.18018269538868 0.62898290964108405 -0.85548968466002684 0.28125000000000006 1.5000000000000002
decision_type=2 9 2 2 2 2 2 2 2 2 2 2 2 2 2 2
left_child=2 4 -1 6 7 10 12 -2 -9 11 13 -7 -4 -3 -8 -5
right_child=1 5 3 15 -6 9 14 8 -10 -11 -12 -13 -14 -15 -16 -17
leaf_value=-0.14963553360471471 0.073613248261038766 -0.014046938820199823 -0.060425755973973726 -0.0019954811248869765 0.023762445745889954 0.03865759471535346 -0.051552319993243542 0.06113384251630595 0.14497011378816702 0.070277921595593679 -0.064328815585134522 0.0035675446287958051 -0.1382922816858588 0.0083333827128635254 -0.0072854591091530575 0.0089252585113686854
leaf_weight=507 245 82 81 91 112 82 89 123 514 90 96 570 109 89 84 85
leaf_count=507 245 82 81 91 112 82 89 123 514 90 96 570 109 89 84 85
internal_value=0.00233273 0.0564856 -0.100341 -0.051796 0.105633 0.00588506 -0.0783991 0.116037 0.13055 0.0184303 -0.0249765 0.00958644 -0.111139 0 -0.0360059 0
internal_weight=3049 2003 1046 539 994 1009 363 882 637 742 267 652 190 171 173 176
internal_count=3049 2003 1046 539 994 1009 363 882 637 742 267 652 190 171 173 176
cat_boundaries=0 1
cat_threshold=4
is_linear=0
shrinkage=0.185339


Tree=80
num_leaves=18
num_cat=1
split_feature=0 11 0 5 5 3 0 0 4 2 3 4 0 2 6 3 5
split_gain=482.382 136.207 67.8416 22.0373 18.7619 17.7157 10.8633 10.1893 7.23032 6.79697 2.13854 2.0302 1.79547 0.515758 0.438979 0.384317 0.193172
threshold=0.11768742165819455 0 -0.20617234533192852 1.0000000180025095e-35 1.0000000180025095e-35 0.84612501113474148 0.83004717628485769 -0.0068026013508286779 -569.63279628753651 -0.29533377372823238 0.62898290964108405 -585.18018269538868 0.91315403569220399 -0.85548968466002684 0.28125000000000006 0.8348936579142755 1.5000000000000002
decision_type=2 9 2 2 2 2 2 2 2 2 2 2 2 2 2 2 2
left_child=2 4 -1 7 5 15 9 10 11 13 -4 -8 -7 -3 -9 -2 -5
right_child=1 6 3 16 -6 12 8 14 -10 -11 -12 -13 -14 -15 -16 -17 -18
leaf_value=-0.14926400628785161 0.075348716600583093 -0.013166941435377376 -0.057316393804319174 -0.0019476780597802951 0.13919135301640306 0.026398637394626293 0.038144855663956236 -0.049343540206108094 0.069308931881716898 -0.066631421133605984 -0.13736731832886617 0.0036625274619081264 0.069733739408828349 0.0059505756490139637 -0.0069079386461057867 0.14192909065963422 0.0085061895372079369
leaf_weight=507 101 82 81 91 405 209 82 89 88 88 109 581 132 88 84 147 85
leaf_count=507 101 82 81 91 405 209 82 89 88 88 109 581 132 88 84 147 85
internal_value=0.00195005 0.055529 -0.0996245 -0.0507583 0.103743 0.0790966 0.00586854 -0.0767732 0.0179762 -0.0252291 -0.109262 0.00950546 0.0463363 0 -0.0346729 0.119519 0
internal_weight=3049 2003 1046 539 994 589 1009 363 751 258 190 663 341 170 173 248 176
internal_count=3049 2003 1046 539 994 589 1009 363 751 258 190 663 341 170 173 248 176
cat_boundaries=0 1
cat_threshold=4
is_linear=0
shrinkage=0.185339


Tree=81
num_leaves=16
num_cat=1
split_feature=0 11 0 6 5 3 3 5 0 2 4 2 1 2 3
